<?xml version="1.0"?>
<opencv_storage>
<cascade>
  <stageType>BOOST</stageType>
  <featureType>LBP</featureType>
  <height>48</height>
  <width>24</width>
  <stageParams>
    <boostType>GAB</boostType>
    <minHitRate>9.9900001287460327e-001</minHitRate>
    <maxFalseAlarm>5.0000000000000000e-001</maxFalseAlarm>
    <weightTrimRate>9.4999999999999996e-001</weightTrimRate>
    <maxDepth>1</maxDepth>
    <maxWeakCount>100</maxWeakCount></stageParams>
  <featureParams>
    <maxCatCount>256</maxCatCount>
    <featSize>1</featSize></featureParams>
  <stageNum>20</stageNum>
  <stages>
    <!-- stage 0 -->
    <_>
      <maxWeakCount>3</maxWeakCount>
      <stageThreshold>-1.1892480850219727e+000</stageThreshold>
      <weakClassifiers>
        <_>
          <internalNodes>
            0 -1 10 -779887733 -788332544 268472323 1560396161
            -2138649957 -2004744184 -930561809 -442500385</internalNodes>
          <leafValues>
            -9.6013289690017700e-001 8.4675323963165283e-001</leafValues></_>
        <_>
          <internalNodes>
            0 -1 20 -182717750 -778600303 4107 17514641 -931085942
            -2111143935 1208025739 1397484235</internalNodes>
          <leafValues>
            -9.0550994873046875e-001 7.6897060871124268e-001</leafValues></_>
        <_>
          <internalNodes>
            0 -1 66 -208405264 -216985581 4097 151191688 -2013230368
            -670892032 134336719 252690863</internalNodes>
          <leafValues>
            -9.3673247098922729e-001 6.7639470100402832e-001</leafValues></_></weakClassifiers></_>
    <!-- stage 1 -->
    <_>
      <maxWeakCount>3</maxWeakCount>
      <stageThreshold>-1.2624210119247437e+000</stageThreshold>
      <weakClassifiers>
        <_>
          <internalNodes>
            0 -1 13 -524369 -551833409 1527334815 -4205601 -628322817
            -68582983 -81147137 -170401825</internalNodes>
          <leafValues>
            -9.2512315511703491e-001 5.9858322143554688e-001</leafValues></_>
        <_>
          <internalNodes>
            0 -1 40 -1048693 -8142817 -1944860461 -12594221 -72163190
            -1076133605 -1198789921 -403179661</internalNodes>
          <leafValues>
            -8.7673741579055786e-001 5.6158298254013062e-001</leafValues></_>
        <_>
          <internalNodes>
            0 -1 86 -268959873 -2103809 -157550113 -272641261 -355467907
            -69615218 -68553475 -722956</internalNodes>
          <leafValues>
            -8.9888077974319458e-001 5.6175965070724487e-001</leafValues></_></weakClassifiers></_>
    <!-- stage 2 -->
    <_>
      <maxWeakCount>3</maxWeakCount>
      <stageThreshold>-1.3080823421478271e+000</stageThreshold>
      <weakClassifiers>
        <_>
          <internalNodes>
            0 -1 7 -79696085 -675555329 2064110463 -2631973 -125305089
            -71574881 -615779137 -33685505</internalNodes>
          <leafValues>
            -9.1173517704010010e-001 5.0622874498367310e-001</leafValues></_>
        <_>
          <internalNodes>
            0 -1 84 -2081 -136588325 -738208801 -2097185 -72352779
            -72628066 -35655683 -559354132</internalNodes>
          <leafValues>
            -8.4088814258575439e-001 5.6603538990020752e-001</leafValues></_>
        <_>
          <internalNodes>
            0 -1 0 -288362865 -285384729 -789327361 -16780865 -84935681
            -609644125 -1149239297 -185272860</internalNodes>
          <leafValues>
            -9.6238255500793457e-001 5.1016420125961304e-001</leafValues></_></weakClassifiers></_>
    <!-- stage 3 -->
    <_>
      <maxWeakCount>4</maxWeakCount>
      <stageThreshold>-1.9301334619522095e+000</stageThreshold>
      <weakClassifiers>
        <_>
          <internalNodes>
            0 -1 44 -2098213 -265281 -319044385 -69208486 -82852989
            -7630615 -213971281 -285213953</internalNodes>
          <leafValues>
            -8.4746563434600830e-001 5.4569190740585327e-001</leafValues></_>
        <_>
          <internalNodes>
            0 -1 43 -537919537 -69217850 -585638949 -12077481 -349176850
            -71589765 -611584017 -138936505</internalNodes>
          <leafValues>
            -7.5490814447402954e-001 6.6527879238128662e-001</leafValues></_>
        <_>
          <internalNodes>
            0 -1 39 -67897360 -712258938 1325725649 -1060120234
            -217453593 -781204638 -350497865 -603981849</internalNodes>
          <leafValues>
            -8.5878080129623413e-001 6.0155218839645386e-001</leafValues></_>
        <_>
          <internalNodes>
            0 -1 9 -337643006 -270539781 -922493153 -790091 -813445171
            -561020773 -233844293 -168428553</internalNodes>
          <leafValues>
            -8.6240732669830322e-001 5.3102111816406250e-001</leafValues></_></weakClassifiers></_>
    <!-- stage 4 -->
    <_>
      <maxWeakCount>4</maxWeakCount>
      <stageThreshold>-2.1206078529357910e+000</stageThreshold>
      <weakClassifiers>
        <_>
          <internalNodes>
            0 -1 54 -2359849 -261 -786445089 -50335498 2097663919
            -269500181 1532447743 -16777473</internalNodes>
          <leafValues>
            -8.2986766099929810e-001 5.0591325759887695e-001</leafValues></_>
        <_>
          <internalNodes>
            0 -1 15 -537404497 -544747045 -578693685 -543173153
            -1161668193 -1145097925 -1050113 -404758793</internalNodes>
          <leafValues>
            -8.7004935741424561e-001 4.7941315174102783e-001</leafValues></_>
        <_>
          <internalNodes>
            0 -1 82 -11536521 -526433 -585509931 -35667046 -108275089
            -661684069 -1869885467 -197900</internalNodes>
          <leafValues>
            -8.8394242525100708e-001 4.6165826916694641e-001</leafValues></_>
        <_>
          <internalNodes>
            0 -1 1 -12654676 -1076701482 -1583183908 -1076965029
            -1148720897 -1991294762 -68157441 251644671</internalNodes>
          <leafValues>
            -8.8621091842651367e-001 5.0502645969390869e-001</leafValues></_></weakClassifiers></_>
    <!-- stage 5 -->
    <_>
      <maxWeakCount>3</maxWeakCount>
      <stageThreshold>-1.1257755756378174e+000</stageThreshold>
      <weakClassifiers>
        <_>
          <internalNodes>
            0 -1 44 -234881061 -212078241 -703493889 -11808518 -82851197
            -69492337 -351334481 -285213985</internalNodes>
          <leafValues>
            -8.4675073623657227e-001 4.6012270450592041e-001</leafValues></_>
        <_>
          <internalNodes>
            0 -1 69 -270807065 -540284005 -910034633 -37235825
            -206832769 -1144289141 -645153793 -5186860</internalNodes>
          <leafValues>
            -8.2855141162872314e-001 4.9358391761779785e-001</leafValues></_>
        <_>
          <internalNodes>
            0 -1 46 -169869941 -46674618 -753541123 -9047577 -40961315
            -81810933 -125060097 -461902269</internalNodes>
          <leafValues>
            -7.5734686851501465e-001 5.6494122743606567e-001</leafValues></_></weakClassifiers></_>
    <!-- stage 6 -->
    <_>
      <maxWeakCount>4</maxWeakCount>
      <stageThreshold>-2.0031096935272217e+000</stageThreshold>
      <weakClassifiers>
        <_>
          <internalNodes>
            0 -1 23 -774424673 -1114114561 -874905761 -142872065
            1565742079 -347899149 -268436529 -33686533</internalNodes>
          <leafValues>
            -8.5657763481140137e-001 4.2222222685813904e-001</leafValues></_>
        <_>
          <internalNodes>
            0 -1 79 -549470287 -167792513 -2130488971 -1060818
            2067774383 -108083009 -570426389 -2075447105</internalNodes>
          <leafValues>
            -7.8500515222549438e-001 5.1157289743423462e-001</leafValues></_>
        <_>
          <internalNodes>
            0 -1 88 -1 -15874913 -774772425 -101189795 -208680299
            -91242182 -605160213 -600265416</internalNodes>
          <leafValues>
            -8.4350532293319702e-001 5.0998604297637939e-001</leafValues></_>
        <_>
          <internalNodes>
            0 -1 55 -203423758 -862997598 1563809040 -976236347
            2077228015 1543209637 -141575693 1476393975</internalNodes>
          <leafValues>
            -8.6824238300323486e-001 4.8197847604751587e-001</leafValues></_></weakClassifiers></_>
    <!-- stage 7 -->
    <_>
      <maxWeakCount>5</maxWeakCount>
      <stageThreshold>-1.4163632392883301e+000</stageThreshold>
      <weakClassifiers>
        <_>
          <internalNodes>
            0 -1 23 -104908865 -7079425 -783857185 -537403749 -95977985
            -2081750869 -741611041 -33685505</internalNodes>
          <leafValues>
            -8.5258966684341431e-001 3.9240506291389465e-001</leafValues></_>
        <_>
          <internalNodes>
            0 -1 76 -13369360 -714755191 285860209 -540027688 -905847878
            -360136549 -284443665 -640811265</internalNodes>
          <leafValues>
            -7.4898636341094971e-001 5.3929072618484497e-001</leafValues></_>
        <_>
          <internalNodes>
            0 -1 89 -1048585 -38014049 -2129521705 -1118506695
            -536224065 -73432437 -93454348 -872087916</internalNodes>
          <leafValues>
            -8.0252701044082642e-001 5.2324712276458740e-001</leafValues></_>
        <_>
          <internalNodes>
            0 -1 59 -34079103 -738754339 -388448113 1542964446
            2032356267 -87318099 -911798609 -88081793</internalNodes>
          <leafValues>
            -7.1704936027526855e-001 5.9578055143356323e-001</leafValues></_>
        <_>
          <internalNodes>
            0 -1 52 -387982386 -49184317 -582790701 -19684925 -70521457
            -644381527 -1282696265 -229376651</internalNodes>
          <leafValues>
            -8.2848268747329712e-001 5.5316430330276489e-001</leafValues></_></weakClassifiers></_>
    <!-- stage 8 -->
    <_>
      <maxWeakCount>5</maxWeakCount>
      <stageThreshold>-1.4883846044540405e+000</stageThreshold>
      <weakClassifiers>
        <_>
          <internalNodes>
            0 -1 24 -540556325 1392706256 289640879 1495204115
            -1828089157 -74874709 -846992709 -1084417</internalNodes>
          <leafValues>
            -7.9533213376998901e-001 6.1787366867065430e-001</leafValues></_>
        <_>
          <internalNodes>
            0 -1 17 -1467301154 -1693892449 1359598943 -1379220514
            -2130081601 -1179975542 -1685386261 -268447241</internalNodes>
          <leafValues>
            -7.8153598308563232e-001 5.0387138128280640e-001</leafValues></_>
        <_>
          <internalNodes>
            0 -1 37 -1038358486 -1650753221 -1592468194 -677416193
            1216479291 -1182023541 1506986239 100649983</internalNodes>
          <leafValues>
            -8.0121290683746338e-001 5.2604049444198608e-001</leafValues></_>
        <_>
          <internalNodes>
            0 -1 33 -577504262 -796688170 1361101725 1293517571
            -620539671 -1339940453 589290303 457146367</internalNodes>
          <leafValues>
            -8.6855870485305786e-001 4.8612973093986511e-001</leafValues></_>
        <_>
          <internalNodes>
            0 -1 50 -116663488 1402196119 -1056960225 -552386365
            -649876480 -372539349 -64902849 -353437062</internalNodes>
          <leafValues>
            -8.6944824457168579e-001 4.7284778952598572e-001</leafValues></_></weakClassifiers></_>
    <!-- stage 9 -->
    <_>
      <maxWeakCount>5</maxWeakCount>
      <stageThreshold>-1.4715672731399536e+000</stageThreshold>
      <weakClassifiers>
        <_>
          <internalNodes>
            0 -1 19 -674237702 -5774200 -1190530593 1431765010
            -762584385 -122048341 -1747998017 -1051017</internalNodes>
          <leafValues>
            -8.2066279649734497e-001 3.7939393520355225e-001</leafValues></_>
        <_>
          <internalNodes>
            0 -1 41 -753533010 -1827151713 -1992081065 -821835109
            -1605666305 -1142809974 1261136828 -1107297289</internalNodes>
          <leafValues>
            -7.3574751615524292e-001 5.1910555362701416e-001</leafValues></_>
        <_>
          <internalNodes>
            0 -1 74 -35652611 568496522 -787276451 -414188447 -74728705
            -1362586999 -439628863 -1915757107</internalNodes>
          <leafValues>
            -7.5646340847015381e-001 5.3248769044876099e-001</leafValues></_>
        <_>
          <internalNodes>
            0 -1 35 -355992030 -459291510 -803868577 -553675437
            -317983493 -75249519 -1097608773 -50533766</internalNodes>
          <leafValues>
            -8.5835009813308716e-001 4.6328020095825195e-001</leafValues></_>
        <_>
          <internalNodes>
            0 -1 62 -316673365 -750662985 -1868480443 -582033258
            1124884141 -75390835 -938760503 1023901627</internalNodes>
          <leafValues>
            -7.5525325536727905e-001 5.2022784948348999e-001</leafValues></_></weakClassifiers></_>
    <!-- stage 10 -->
    <_>
      <maxWeakCount>6</maxWeakCount>
      <stageThreshold>-2.1438238620758057e+000</stageThreshold>
      <weakClassifiers>
        <_>
          <internalNodes>
            0 -1 3 -1965315409 -212084913 -711066753 -2099233
            -2029783073 -70807288 -44043777 -268959755</internalNodes>
          <leafValues>
            -9.2119401693344116e-001 1.4309483766555786e-001</leafValues></_>
        <_>
          <internalNodes>
            0 -1 73 -7618567 -538191601 -2004168459 -686048249
            2133584879 -909459287 -38798597 1238366719</internalNodes>
          <leafValues>
            -6.9792729616165161e-001 4.8782584071159363e-001</leafValues></_>
        <_>
          <internalNodes>
            0 -1 36 -84935954 -610272434 -402534481 -279064355
            -357320549 -80961378 -611321121 -998246017</internalNodes>
          <leafValues>
            -6.9370836019515991e-001 5.3253668546676636e-001</leafValues></_>
        <_>
          <internalNodes>
            0 -1 70 -716715538 -181161569 -1794960927 -175121970
            -628950970 -1281718103 -1547056138 -34539536</internalNodes>
          <leafValues>
            -8.2440966367721558e-001 4.2327472567558289e-001</leafValues></_>
        <_>
          <internalNodes>
            0 -1 16 -335548417 -19899585 -1037036772 -566177768
            -452267845 -89529727 1338738943 1291534478</internalNodes>
          <leafValues>
            -7.1207958459854126e-001 5.2318286895751953e-001</leafValues></_>
        <_>
          <internalNodes>
            0 -1 38 -231351858 -37551992 277418959 -581631715
            -2010477864 -1148702296 -744842513 -736904185</internalNodes>
          <leafValues>
            -7.9673361778259277e-001 4.5781081914901733e-001</leafValues></_></weakClassifiers></_>
    <!-- stage 11 -->
    <_>
      <maxWeakCount>5</maxWeakCount>
      <stageThreshold>-1.4512457847595215e+000</stageThreshold>
      <weakClassifiers>
        <_>
          <internalNodes>
            0 -1 26 -67635205 -10439426 -1866284803 -237939360
            -662002705 -24410725 -607401729 -706220041</internalNodes>
          <leafValues>
            -8.2412058115005493e-001 3.0326944589614868e-001</leafValues></_>
        <_>
          <internalNodes>
            0 -1 47 -580912129 -410484283 -2127455854 -11288105
            -399838209 1219150059 -205996105 -705967617</internalNodes>
          <leafValues>
            -8.0332702398300171e-001 4.0424683690071106e-001</leafValues></_>
        <_>
          <internalNodes>
            0 -1 6 -778573533 -270806657 -1056833665 -539494401
            -919543169 -909409705 -929825793 -273285249</internalNodes>
          <leafValues>
            -7.8418201208114624e-001 4.2126005887985229e-001</leafValues></_>
        <_>
          <internalNodes>
            0 -1 14 -361303345 -163061685 -1073528829 -99167198
            -91258181 -1425907326 -905212728 -856765186</internalNodes>
          <leafValues>
            -6.9126671552658081e-001 5.4092121124267578e-001</leafValues></_>
        <_>
          <internalNodes>
            0 -1 8 -12331089 -296644325 -729574113 -606628449
            -1148877909 -83148522 -1179006325 -185278222</internalNodes>
          <leafValues>
            -7.3802411556243896e-001 5.2426046133041382e-001</leafValues></_></weakClassifiers></_>
    <!-- stage 12 -->
    <_>
      <maxWeakCount>5</maxWeakCount>
      <stageThreshold>-1.1612575054168701e+000</stageThreshold>
      <weakClassifiers>
        <_>
          <internalNodes>
            0 -1 80 -1753762821 -1618750118 -788477551 -44383792
            1540582395 -2002055030 2077170623 -536882181</internalNodes>
          <leafValues>
            -7.8368300199508667e-001 4.2349725961685181e-001</leafValues></_>
        <_>
          <internalNodes>
            0 -1 27 -9437189 -16755580 -1853505027 -778972464 -226231365
            -276658029 -1031172625 -709363017</internalNodes>
          <leafValues>
            -6.4409947395324707e-001 5.5407863855361938e-001</leafValues></_>
        <_>
          <internalNodes>
            0 -1 75 -877156465 -606399863 1245471 -207910525 -645662373
            -123043710 -1182167061 -19867136</internalNodes>
          <leafValues>
            -7.1475875377655029e-001 4.9723920226097107e-001</leafValues></_>
        <_>
          <internalNodes>
            0 -1 34 -620627016 -256665709 -654158347 -962084395
            -402201733 900174773 -1458896193 -1683010585</internalNodes>
          <leafValues>
            -7.5341910123825073e-001 4.9765330553054810e-001</leafValues></_>
        <_>
          <internalNodes>
            0 -1 63 -616301775 -641088833 -1073676211 -574466864
            1812417195 -1450671985 986405583 1566832359</internalNodes>
          <leafValues>
            -6.7065560817718506e-001 5.4449653625488281e-001</leafValues></_></weakClassifiers></_>
    <!-- stage 13 -->
    <_>
      <maxWeakCount>5</maxWeakCount>
      <stageThreshold>-1.6079220771789551e+000</stageThreshold>
      <weakClassifiers>
        <_>
          <internalNodes>
            0 -1 78 -206586439 -542125713 218119671 -108277745
            -367019329 -209026933 -74740757 -1781285633</internalNodes>
          <leafValues>
            -7.9293662309646606e-001 3.3086419105529785e-001</leafValues></_>
        <_>
          <internalNodes>
            0 -1 5 -258240085 -745975783 -112897641 1597491455
            -715841289 -1158528337 -392965633 -167780865</internalNodes>
          <leafValues>
            -8.0628538131713867e-001 3.7309449911117554e-001</leafValues></_>
        <_>
          <internalNodes>
            0 -1 87 -472140993 -648707453 1346633883 -78686053
            -1601617363 -91389805 -486437720 -389755164</internalNodes>
          <leafValues>
            -8.7744003534317017e-001 3.4445559978485107e-001</leafValues></_>
        <_>
          <internalNodes>
            0 -1 53 -774513766 295272601 1090601041 -1848375477
            -2130124581 -645157747 -2138865507 1442136503</internalNodes>
          <leafValues>
            -7.3775649070739746e-001 5.0058597326278687e-001</leafValues></_>
        <_>
          <internalNodes>
            0 -1 64 -81014381 -2948649 -1072603915 799998606 706939627
            -342228678 -1904000293 1107255517</internalNodes>
          <leafValues>
            -7.3919999599456787e-001 4.4037654995918274e-001</leafValues></_></weakClassifiers></_>
    <!-- stage 14 -->
    <_>
      <maxWeakCount>5</maxWeakCount>
      <stageThreshold>-1.6153029203414917e+000</stageThreshold>
      <weakClassifiers>
        <_>
          <internalNodes>
            0 -1 29 -725878853 -168442601 353082783 1432092575
            -259436053 -1149140732 -32387701 2112880631</internalNodes>
          <leafValues>
            -8.2118862867355347e-001 2.3142249882221222e-001</leafValues></_>
        <_>
          <internalNodes>
            0 -1 2 -95692118 -3683898 286331031 -90492925 -1689077253
            -71860053 -87319877 -184561585</internalNodes>
          <leafValues>
            -7.2361636161804199e-001 4.3129032850265503e-001</leafValues></_>
        <_>
          <internalNodes>
            0 -1 32 -1553999105 811072823 822285899 -1567960680
            -782769477 -1610051424 -342701604 -512693316</internalNodes>
          <leafValues>
            -8.3368366956710815e-001 3.5721594095230103e-001</leafValues></_>
        <_>
          <internalNodes>
            0 -1 67 -79562760 -1688688571 -2122230572 -1722040100
            839084991 -1681161592 1134207131 535813357</internalNodes>
          <leafValues>
            -7.6918435096740723e-001 4.0702894330024719e-001</leafValues></_>
        <_>
          <internalNodes>
            0 -1 11 -1068373501 -921352105 -988743911 -782917857
            67141817 -486275788 1103338751 -134873419</internalNodes>
          <leafValues>
            -7.9874986410140991e-001 4.6452516317367554e-001</leafValues></_></weakClassifiers></_>
    <!-- stage 15 -->
    <_>
      <maxWeakCount>5</maxWeakCount>
      <stageThreshold>-1.4565745592117310e+000</stageThreshold>
      <weakClassifiers>
        <_>
          <internalNodes>
            0 -1 58 -111677441 -1794969009 -805199743 -784010221
            1229136875 -628970879 -376460629 -289412097</internalNodes>
          <leafValues>
            -7.8017848730087280e-001 3.8770052790641785e-001</leafValues></_>
        <_>
          <internalNodes>
            0 -1 48 -1730308657 1439891653 -803889190 -539552865
            -99820177 -3505454 -1550218753 -136853481</internalNodes>
          <leafValues>
            -7.1704834699630737e-001 4.4106033444404602e-001</leafValues></_>
        <_>
          <internalNodes>
            0 -1 12 -1185024628 -1151675830 -2117840556 -247049441
            -938983423 -1198897141 -65930801 -1917108033</internalNodes>
          <leafValues>
            -7.3206812143325806e-001 4.4015574455261230e-001</leafValues></_>
        <_>
          <internalNodes>
            0 -1 25 -146618369 1250902126 -754194469 1090986191
            824410547 -1860991868 -242410950 2080338943</internalNodes>
          <leafValues>
            -7.1817898750305176e-001 4.5455870032310486e-001</leafValues></_>
        <_>
          <internalNodes>
            0 -1 81 -1759513128 -1924213248 1100054554 756105408
            -922498405 -2100682742 1368109267 -1931750975</internalNodes>
          <leafValues>
            -8.3508825302124023e-001 4.2397192120552063e-001</leafValues></_></weakClassifiers></_>
    <!-- stage 16 -->
    <_>
      <maxWeakCount>5</maxWeakCount>
      <stageThreshold>-1.4918783903121948e+000</stageThreshold>
      <weakClassifiers>
        <_>
          <internalNodes>
            0 -1 57 -648558161 -933644081 8471051 -237461362 1879253167
            -1207368830 -1064709733 -52690945</internalNodes>
          <leafValues>
            -7.8040701150894165e-001 3.6387434601783752e-001</leafValues></_>
        <_>
          <internalNodes>
            0 -1 77 -619970632 1427324939 -1844802603 -687353825
            -179836481 -802971510 -1760575077 -1847758097</internalNodes>
          <leafValues>
            -7.1200096607208252e-001 4.1780716180801392e-001</leafValues></_>
        <_>
          <internalNodes>
            0 -1 42 -775291390 -788462113 1359006551 -1309866081
            -791952521 -1679196021 -276695809 -461570433</internalNodes>
          <leafValues>
            -9.2727094888687134e-001 3.3822482824325562e-001</leafValues></_>
        <_>
          <internalNodes>
            0 -1 85 -211813388 -1726758516 1082216541 -1522158296
            -267281985 573057154 -935113985 217573559</internalNodes>
          <leafValues>
            -6.7230284214019775e-001 4.8458570241928101e-001</leafValues></_>
        <_>
          <internalNodes>
            0 -1 68 -788111176 -1609398928 -2146846540 -645623668
            808669359 -2121793399 -1043611417 -575674197</internalNodes>
          <leafValues>
            -6.8659335374832153e-001 5.1487123966217041e-001</leafValues></_></weakClassifiers></_>
    <!-- stage 17 -->
    <_>
      <maxWeakCount>5</maxWeakCount>
      <stageThreshold>-1.3523042201995850e+000</stageThreshold>
      <weakClassifiers>
        <_>
          <internalNodes>
            0 -1 21 -573062417 -170021690 1099106767 -10810621
            -920936317 -1701738455 1183545944 -2104453</internalNodes>
          <leafValues>
            -7.3695945739746094e-001 4.4479495286941528e-001</leafValues></_>
        <_>
          <internalNodes>
            0 -1 60 -262484280 -2130578231 1904255328 -266411902
            -1043723490 -1851551072 -909996623 297744251</internalNodes>
          <leafValues>
            -8.0211818218231201e-001 3.3667021989822388e-001</leafValues></_>
        <_>
          <internalNodes>
            0 -1 71 -1986806885 -615939689 -670316269 -438321138
            -368382979 -662639223 -1438594341 -1985981499</internalNodes>
          <leafValues>
            -6.4823240041732788e-001 4.7891706228256226e-001</leafValues></_>
        <_>
          <internalNodes>
            0 -1 22 1111746558 768860320 -1069342706 -791207906
            -1069026767 -628506342 1103882668 -2153833</internalNodes>
          <leafValues>
            -6.6245990991592407e-001 5.0160366296768188e-001</leafValues></_>
        <_>
          <internalNodes>
            0 -1 56 1181997760 1125187724 606468 -574099324 -2007774619
            5169559 4688135 1680603999</internalNodes>
          <leafValues>
            -7.6847213506698608e-001 4.4105678796768188e-001</leafValues></_></weakClassifiers></_>
    <!-- stage 18 -->
    <_>
      <maxWeakCount>5</maxWeakCount>
      <stageThreshold>-1.3560546636581421e+000</stageThreshold>
      <weakClassifiers>
        <_>
          <internalNodes>
            0 -1 51 -178258441 -246333031 20023487 -1148084200
            1224920029 -1182760255 -71792691 -271429</internalNodes>
          <leafValues>
            -7.3018699884414673e-001 4.2630743980407715e-001</leafValues></_>
        <_>
          <internalNodes>
            0 -1 28 1829991722 -1717570791 -217984554 -243056489
            -535530503 -267898839 -634719249 -908068357</internalNodes>
          <leafValues>
            -7.1355026960372925e-001 4.6567094326019287e-001</leafValues></_>
        <_>
          <internalNodes>
            0 -1 45 -2121797189 2249344 -1056947247 -1309731609
            2016944315 -1114603359 696795367 -570701377</internalNodes>
          <leafValues>
            -6.5891349315643311e-001 5.0522577762603760e-001</leafValues></_>
        <_>
          <internalNodes>
            0 -1 83 1899968311 -712797813 -1861992425 -581336957
            46173799 -609648480 -642803673 -458928</internalNodes>
          <leafValues>
            -8.4289270639419556e-001 3.9771354198455811e-001</leafValues></_>
        <_>
          <internalNodes>
            0 -1 30 -591208965 -447463400 403215807 1438976282
            -794623989 -402456576 -2147317170 1977822823</internalNodes>
          <leafValues>
            -7.3114490509033203e-001 4.6071591973304749e-001</leafValues></_></weakClassifiers></_>
    <!-- stage 19 -->
    <_>
      <maxWeakCount>8</maxWeakCount>
      <stageThreshold>-1.7236207723617554e+000</stageThreshold>
      <weakClassifiers>
        <_>
          <internalNodes>
            0 -1 31 -109063171 -1724657067 135332703 -44182025
            -213648697 -67395407 -1719432177 -14695933</internalNodes>
          <leafValues>
            -7.2107344865798950e-001 4.4370859861373901e-001</leafValues></_>
        <_>
          <internalNodes>
            0 -1 4 1264162447 990707983 1922259331 -77737861 151548671
            -1710673861 -775209653 -940607249</internalNodes>
          <leafValues>
            -8.2591730356216431e-001 3.4270048141479492e-001</leafValues></_>
        <_>
          <internalNodes>
            0 -1 65 -460601893 -574390091 273682655 -1793953613
            -1610577509 -584448886 -1952282195 -82396528</internalNodes>
          <leafValues>
            -6.0288584232330322e-001 5.5494409799575806e-001</leafValues></_>
        <_>
          <internalNodes>
            0 -1 18 -142093857 1884717958 50401370 -164450224
            -1878857477 -503267328 -1744076038 -2044804978</internalNodes>
          <leafValues>
            -6.2657666206359863e-001 5.4443717002868652e-001</leafValues></_>
        <_>
          <internalNodes>
            0 -1 72 -1794250327 -477040447 -1878964209 -888680360 573647
            -1966473078 -1454708005 424750335</internalNodes>
          <leafValues>
            -6.7636907100677490e-001 5.3602159023284912e-001</leafValues></_>
        <_>
          <internalNodes>
            0 -1 90 -146015272 -754351856 17 -803535680 -779892533
            939524225 -1065301285 -2002069046</internalNodes>
          <leafValues>
            -6.4772152900695801e-001 5.4826819896697998e-001</leafValues></_>
        <_>
          <internalNodes>
            0 -1 61 -665328935 -717160397 -2146959035 1830270492
            1931496175 -1870016503 -368489329 1633549371</internalNodes>
          <leafValues>
            -6.3805758953094482e-001 5.6551706790924072e-001</leafValues></_>
        <_>
          <internalNodes>
            0 -1 49 -1048657 -1048577 -5 -2 -49 -129 -1 -747112449</internalNodes>
          <leafValues>
            -5.2822560071945190e-001 7.1782600879669189e-001</leafValues></_></weakClassifiers></_></stages>
  <features>
    <_>
      <rect>
        0 0 3 4</rect></_>
    <_>
      <rect>
        0 0 4 8</rect></_>
    <_>
      <rect>
        0 0 5 3</rect></_>
    <_>
      <rect>
        0 0 5 14</rect></_>
    <_>
      <rect>
        0 0 8 7</rect></_>
    <_>
      <rect>
        0 0 8 8</rect></_>
    <_>
      <rect>
        0 0 8 11</rect></_>
    <_>
      <rect>
        0 0 8 13</rect></_>
    <_>
      <rect>
        0 1 3 4</rect></_>
    <_>
      <rect>
        0 1 6 15</rect></_>
    <_>
      <rect>
        0 1 8 7</rect></_>
    <_>
      <rect>
        0 2 6 14</rect></_>
    <_>
      <rect>
        0 3 4 8</rect></_>
    <_>
      <rect>
        0 3 8 7</rect></_>
    <_>
      <rect>
        0 4 1 6</rect></_>
    <_>
      <rect>
        0 4 8 5</rect></_>
    <_>
      <rect>
        0 10 2 4</rect></_>
    <_>
      <rect>
        0 12 3 5</rect></_>
    <_>
      <rect>
        0 13 1 3</rect></_>
    <_>
      <rect>
        0 17 3 6</rect></_>
    <_>
      <rect>
        0 17 6 9</rect></_>
    <_>
      <rect>
        0 21 2 7</rect></_>
    <_>
      <rect>
        0 27 3 7</rect></_>
    <_>
      <rect>
        1 0 7 10</rect></_>
    <_>
      <rect>
        1 17 3 9</rect></_>
    <_>
      <rect>
        1 18 4 9</rect></_>
    <_>
      <rect>
        1 19 4 4</rect></_>
    <_>
      <rect>
        1 20 4 4</rect></_>
    <_>
      <rect>
        2 3 5 8</rect></_>
    <_>
      <rect>
        2 16 4 8</rect></_>
    <_>
      <rect>
        2 17 4 7</rect></_>
    <_>
      <rect>
        2 33 4 5</rect></_>
    <_>
      <rect>
        3 5 1 3</rect></_>
    <_>
      <rect>
        3 19 4 9</rect></_>
    <_>
      <rect>
        3 27 5 7</rect></_>
    <_>
      <rect>
        4 0 2 4</rect></_>
    <_>
      <rect>
        4 0 4 5</rect></_>
    <_>
      <rect>
        4 0 4 8</rect></_>
    <_>
      <rect>
        4 0 6 4</rect></_>
    <_>
      <rect>
        4 26 6 7</rect></_>
    <_>
      <rect>
        5 1 6 6</rect></_>
    <_>
      <rect>
        5 3 4 9</rect></_>
    <_>
      <rect>
        5 6 6 14</rect></_>
    <_>
      <rect>
        6 0 6 5</rect></_>
    <_>
      <rect>
        6 18 5 7</rect></_>
    <_>
      <rect>
        6 33 4 3</rect></_>
    <_>
      <rect>
        7 0 4 4</rect></_>
    <_>
      <rect>
        7 39 5 2</rect></_>
    <_>
      <rect>
        8 4 5 4</rect></_>
    <_>
      <rect>
        8 6 5 4</rect></_>
    <_>
      <rect>
        8 12 5 12</rect></_>
    <_>
      <rect>
        8 21 4 4</rect></_>
    <_>
      <rect>
        9 0 5 5</rect></_>
    <_>
      <rect>
        9 3 4 8</rect></_>
    <_>
      <rect>
        9 19 4 6</rect></_>
    <_>
      <rect>
        9 30 5 6</rect></_>
    <_>
      <rect>
        10 6 3 14</rect></_>
    <_>
      <rect>
        10 9 2 11</rect></_>
    <_>
      <rect>
        10 16 2 7</rect></_>
    <_>
      <rect>
        10 17 3 8</rect></_>
    <_>
      <rect>
        11 5 2 9</rect></_>
    <_>
      <rect>
        11 18 3 7</rect></_>
    <_>
      <rect>
        12 4 4 10</rect></_>
    <_>
      <rect>
        12 19 3 7</rect></_>
    <_>
      <rect>
        12 21 4 4</rect></_>
    <_>
      <rect>
        13 0 3 2</rect></_>
    <_>
      <rect>
        13 17 3 10</rect></_>
    <_>
      <rect>
        13 24 2 6</rect></_>
    <_>
      <rect>
        13 30 2 3</rect></_>
    <_>
      <rect>
        14 1 3 3</rect></_>
    <_>
      <rect>
        14 5 3 3</rect></_>
    <_>
      <rect>
        14 12 3 5</rect></_>
    <_>
      <rect>
        14 13 3 8</rect></_>
    <_>
      <rect>
        14 22 3 5</rect></_>
    <_>
      <rect>
        14 29 3 6</rect></_>
    <_>
      <rect>
        15 0 3 2</rect></_>
    <_>
      <rect>
        15 5 3 14</rect></_>
    <_>
      <rect>
        15 12 3 10</rect></_>
    <_>
      <rect>
        15 14 3 8</rect></_>
    <_>
      <rect>
        15 16 3 7</rect></_>
    <_>
      <rect>
        15 36 3 4</rect></_>
    <_>
      <rect>
        16 30 2 4</rect></_>
    <_>
      <rect>
        18 3 2 4</rect></_>
    <_>
      <rect>
        18 4 2 3</rect></_>
    <_>
      <rect>
        18 11 2 4</rect></_>
    <_>
      <rect>
        18 26 2 6</rect></_>
    <_>
      <rect>
        21 7 1 3</rect></_>
    <_>
      <rect>
        21 9 1 3</rect></_>
    <_>
      <rect>
        21 11 1 4</rect></_>
    <_>
      <rect>
        21 17 1 2</rect></_>
    <_>
      <rect>
        21 19 1 7</rect></_></features></cascade>
</opencv_storage>
