<?xml version="1.0"?>
<opencv_storage>
<cascade>
  <stageType>BOOST</stageType>
  <featureType>LBP</featureType>
  <height>20</height>
  <width>30</width>
  <stageParams>
    <boostType>GAB</boostType>
    <minHitRate>9.9900001287460327e-001</minHitRate>
    <maxFalseAlarm>5.0000000000000000e-001</maxFalseAlarm>
    <weightTrimRate>9.4999999999999996e-001</weightTrimRate>
    <maxDepth>1</maxDepth>
    <maxWeakCount>100</maxWeakCount></stageParams>
  <featureParams>
    <maxCatCount>256</maxCatCount>
    <featSize>1</featSize></featureParams>
  <stageNum>20</stageNum>
  <stages>
    <!-- stage 0 -->
    <_>
      <maxWeakCount>3</maxWeakCount>
      <stageThreshold>-1.3230283260345459e+000</stageThreshold>
      <weakClassifiers>
        <_>
          <internalNodes>
            0 -1 7 -71052833 -577564527 53721 1338196949 -805191445
            -2003927036 -1874226981 13357787</internalNodes>
          <leafValues>
            -9.5555555820465088e-001 7.4609017372131348e-001</leafValues></_>
        <_>
          <internalNodes>
            0 -1 36 -640418337 -787398631 -805269449 -686549736
            -1031538533 -2004352896 -796751649 1280332125</internalNodes>
          <leafValues>
            -9.5089852809906006e-001 6.4761185646057129e-001</leafValues></_>
        <_>
          <internalNodes>
            0 -1 9 -7090689 -103431935 -1056927717 -148438781 -938884657
            -796803070 -929981830 1090863635</internalNodes>
          <leafValues>
            -9.5796757936477661e-001 5.8342581987380981e-001</leafValues></_></weakClassifiers></_>
    <!-- stage 1 -->
    <_>
      <maxWeakCount>4</maxWeakCount>
      <stageThreshold>-2.1007478237152100e+000</stageThreshold>
      <weakClassifiers>
        <_>
          <internalNodes>
            0 -1 97 -2621441 -1378360865 -737033317 -19465 -607147521
            -551860081 -1692691729 234866943</internalNodes>
          <leafValues>
            -9.3865031003952026e-001 4.8060172796249390e-001</leafValues></_>
        <_>
          <internalNodes>
            0 -1 10 -540020737 -539115045 -1718232581 -2375277
            -607417861 -1617985397 -276569345 1362577183</internalNodes>
          <leafValues>
            -9.0288078784942627e-001 4.6306413412094116e-001</leafValues></_>
        <_>
          <internalNodes>
            0 -1 37 -537133089 -604257301 -787885729 -12676322 -75240193
            -355823461 -74806545 -857962286</internalNodes>
          <leafValues>
            -8.7877428531646729e-001 4.7810828685760498e-001</leafValues></_>
        <_>
          <internalNodes>
            0 -1 5 -262145 -535563 -69477409 -3684357 -520357411
            -116262480 -92025644 -146282522</internalNodes>
          <leafValues>
            -7.0170086622238159e-001 6.1955767869949341e-001</leafValues></_></weakClassifiers></_>
    <!-- stage 2 -->
    <_>
      <maxWeakCount>5</maxWeakCount>
      <stageThreshold>-1.4986473321914673e+000</stageThreshold>
      <weakClassifiers>
        <_>
          <internalNodes>
            0 -1 104 -1342177281 -1885346177 -2126775841 -1073745953
            -1898583313 -1080045845 181398511 -1610614273</internalNodes>
          <leafValues>
            -8.8055682182312012e-001 5.0129872560501099e-001</leafValues></_>
        <_>
          <internalNodes>
            0 -1 69 -603979777 -409078881 -619621985 -67898977
            -217060629 -1075887393 -72640001 -1997543169</internalNodes>
          <leafValues>
            -8.0229055881500244e-001 5.6113570928573608e-001</leafValues></_>
        <_>
          <internalNodes>
            0 -1 94 -5242881 -240195 -2100227 -134393036 2144324603
            -3436611 -269485057 -1078422348</internalNodes>
          <leafValues>
            -7.7259701490402222e-001 5.8261674642562866e-001</leafValues></_>
        <_>
          <internalNodes>
            0 -1 13 -536876065 -543172653 -249445377 -539105793
            -703872521 -779366085 -35685969 1127565175</internalNodes>
          <leafValues>
            -8.8401353359222412e-001 4.9118471145629883e-001</leafValues></_>
        <_>
          <internalNodes>
            0 -1 3 -36701185 -211816009 -518924801 -14696026 -1551107329
            -1243490175 -79436796 -414845436</internalNodes>
          <leafValues>
            -8.5926443338394165e-001 4.8559683561325073e-001</leafValues></_></weakClassifiers></_>
    <!-- stage 3 -->
    <_>
      <maxWeakCount>5</maxWeakCount>
      <stageThreshold>-2.6129231452941895e+000</stageThreshold>
      <weakClassifiers>
        <_>
          <internalNodes>
            0 -1 121 -4195397 -1223765161 -250359617 -1317079012
            -886048833 -1060657 -278667297 -1073750017</internalNodes>
          <leafValues>
            -8.1598269939422607e-001 4.7516402602195740e-001</leafValues></_>
        <_>
          <internalNodes>
            0 -1 83 -595593473 -813704801 -934424323 -8533961 -937435938
            -1613002325 -2137020162 -858201862</internalNodes>
          <leafValues>
            -7.7578747272491455e-001 5.1431977748870850e-001</leafValues></_>
        <_>
          <internalNodes>
            0 -1 53 -538986497 -145017985 1600385534 -730670 -69207313
            -357397794 -4734977 -849586449</internalNodes>
          <leafValues>
            -7.0388442277908325e-001 5.8816087245941162e-001</leafValues></_>
        <_>
          <internalNodes>
            0 -1 111 -1145049413 -1488004642 995489791 -1076432902
            686803663 -1149504993 469762047 268406271</internalNodes>
          <leafValues>
            -8.8845437765121460e-001 4.0615782141685486e-001</leafValues></_>
        <_>
          <internalNodes>
            0 -1 25 -287339557 -683424417 1393914271 1363775949
            -716471653 -653393149 -555621665 1359991742</internalNodes>
          <leafValues>
            -7.2342646121978760e-001 5.4672646522521973e-001</leafValues></_></weakClassifiers></_>
    <!-- stage 4 -->
    <_>
      <maxWeakCount>6</maxWeakCount>
      <stageThreshold>-2.3352768421173096e+000</stageThreshold>
      <weakClassifiers>
        <_>
          <internalNodes>
            0 -1 38 -70778881 -147632045 -721314849 -2171937 -340020289
            -340028509 -5260353 -318965505</internalNodes>
          <leafValues>
            -8.9861750602722168e-001 2.6102170348167419e-001</leafValues></_>
        <_>
          <internalNodes>
            0 -1 11 -1 -572548641 1213703150 -3279105 -37762385
            -222848569 -1027162764 -202902041</internalNodes>
          <leafValues>
            -7.5847381353378296e-001 4.0362986922264099e-001</leafValues></_>
        <_>
          <internalNodes>
            0 -1 120 -136314945 -1223502970 -380432107 -1646464684
            -354167333 -1299718137 1610084496 654302143</internalNodes>
          <leafValues>
            -7.8957509994506836e-001 4.2147085070610046e-001</leafValues></_>
        <_>
          <internalNodes>
            0 -1 18 -35651617 133943447 -650059811 1398764831
            -1928688645 1337563769 -1727423553 1542176767</internalNodes>
          <leafValues>
            -8.1619727611541748e-001 4.1986873745918274e-001</leafValues></_>
        <_>
          <internalNodes>
            0 -1 1 -539233281 -134250342 -1877429762 -35934037
            -913585672 -918515572 -795627376 -724049708</internalNodes>
          <leafValues>
            -7.1161615848541260e-001 5.1270931959152222e-001</leafValues></_>
        <_>
          <internalNodes>
            0 -1 122 -605036545 -746073341 -1054523309 -1614561263
            -789870414 -1593606142 2067252004 -815737472</internalNodes>
          <leafValues>
            -8.2132226228713989e-001 4.2815718054771423e-001</leafValues></_></weakClassifiers></_>
    <!-- stage 5 -->
    <_>
      <maxWeakCount>7</maxWeakCount>
      <stageThreshold>-1.8030434846878052e+000</stageThreshold>
      <weakClassifiers>
        <_>
          <internalNodes>
            0 -1 106 -2097169 -1931682612 -602841850 -571089842
            -327045121 -73718870 -82851169 -539231301</internalNodes>
          <leafValues>
            -8.6499214172363281e-001 1.8422842025756836e-001</leafValues></_>
        <_>
          <internalNodes>
            0 -1 101 -83821064 -912862767 -1659636259 -539553315
            939571711 -1147413522 188459519 -1615068952</internalNodes>
          <leafValues>
            -7.0769077539443970e-001 4.5888558030128479e-001</leafValues></_>
        <_>
          <internalNodes>
            0 -1 23 -639644705 -553138339 -787612705 -839676705
            -74772481 -550562017 -74206273 1412910879</internalNodes>
          <leafValues>
            -8.3509659767150879e-001 3.9467278122901917e-001</leafValues></_>
        <_>
          <internalNodes>
            0 -1 108 -67374113 -11308847 1343427967 -541092457
            -657073169 -12877614 2072234941 -1162298984</internalNodes>
          <leafValues>
            -7.0524746179580688e-001 4.9424934387207031e-001</leafValues></_>
        <_>
          <internalNodes>
            0 -1 32 -69471829 -236748108 50643448 -20000552 -743730777
            -494411133 2064376576 -203433039</internalNodes>
          <leafValues>
            -6.5262794494628906e-001 5.0405973196029663e-001</leafValues></_>
        <_>
          <internalNodes>
            0 -1 110 -106891092 -929589112 -1879046695 -540044076
            1980944811 -1412847477 -1551398465 -1615396459</internalNodes>
          <leafValues>
            -6.5680325031280518e-001 4.9516195058822632e-001</leafValues></_>
        <_>
          <internalNodes>
            0 -1 39 1930106271 -284203241 17124639 -277687537 -670444842
            -1438938433 -1146950930 -397355849</internalNodes>
          <leafValues>
            -8.2596349716186523e-001 4.0361773967742920e-001</leafValues></_></weakClassifiers></_>
    <!-- stage 6 -->
    <_>
      <maxWeakCount>7</maxWeakCount>
      <stageThreshold>-1.5196405649185181e+000</stageThreshold>
      <weakClassifiers>
        <_>
          <internalNodes>
            0 -1 51 1532425471 -81813897 302247903 -622562 -935272213
            -5198645 -2004620321 -3192689</internalNodes>
          <leafValues>
            -7.0721977949142456e-001 4.4685715436935425e-001</leafValues></_>
        <_>
          <internalNodes>
            0 -1 93 -2097169 -1898129970 -715598881 -537919521
            1480704943 -117711335 -297558053 -536870917</internalNodes>
          <leafValues>
            -7.0355403423309326e-001 4.6996846795082092e-001</leafValues></_>
        <_>
          <internalNodes>
            0 -1 6 -547422210 -134557222 -1583885828 -574365243
            -376730628 -743061064 -216803372 -444073994</internalNodes>
          <leafValues>
            -7.4424219131469727e-001 4.0557637810707092e-001</leafValues></_>
        <_>
          <internalNodes>
            0 -1 125 -1631584333 -1658924806 -956055293 -1452411518
            -1823752053 -1110212397 1942997700 -1612713004</internalNodes>
          <leafValues>
            -7.2805798053741455e-001 3.9092493057250977e-001</leafValues></_>
        <_>
          <internalNodes>
            0 -1 42 -287839616 -1337229153 562399360 -82983141
            -777142251 1099816215 -255591875 1173353343</internalNodes>
          <leafValues>
            -6.9025707244873047e-001 4.5112600922584534e-001</leafValues></_>
        <_>
          <internalNodes>
            0 -1 61 -122453078 1521107822 -1072742194 2010637198
            1900765839 1393428738 -209335621 1778379243</internalNodes>
          <leafValues>
            -6.6624873876571655e-001 4.6415516734123230e-001</leafValues></_>
        <_>
          <internalNodes>
            0 -1 48 -1080039631 -2141200049 1419461323 -972824558
            -1162876603 25690289 -775703056 -169101871</internalNodes>
          <leafValues>
            -6.5641003847122192e-001 4.7055241465568542e-001</leafValues></_></weakClassifiers></_>
    <!-- stage 7 -->
    <_>
      <maxWeakCount>7</maxWeakCount>
      <stageThreshold>-1.6401534080505371e+000</stageThreshold>
      <weakClassifiers>
        <_>
          <internalNodes>
            0 -1 21 -1 -103295493 -1775265345 -1191253762 -36738561
            -105701401 -336651315 -83890179</internalNodes>
          <leafValues>
            -7.4299263954162598e-001 3.2079023122787476e-001</leafValues></_>
        <_>
          <internalNodes>
            0 -1 27 -754189985 -37760249 16843067 -76930 -896890706
            -88299377 -1148478529 -851058341</internalNodes>
          <leafValues>
            -6.4122658967971802e-001 4.1579973697662354e-001</leafValues></_>
        <_>
          <internalNodes>
            0 -1 105 -61341714 -1972712250 -1885744666 500157418
            -1875119941 -1932803153 -258737169 -1946158117</internalNodes>
          <leafValues>
            -8.2417988777160645e-001 3.4150803089141846e-001</leafValues></_>
        <_>
          <internalNodes>
            0 -1 26 -1025530185 -545785005 -1073622057 -720248869
            -2115337897 93180583 -777136291 1442313071</internalNodes>
          <leafValues>
            -6.9764649868011475e-001 4.1733354330062866e-001</leafValues></_>
        <_>
          <internalNodes>
            0 -1 35 -1377836041 -1344806536 1397085015 -677614692
            -894438922 -1631868429 2109465844 -184633228</internalNodes>
          <leafValues>
            -6.1204606294631958e-001 4.8688989877700806e-001</leafValues></_>
        <_>
          <internalNodes>
            0 -1 71 -673217621 2135892366 268828810 813900430 -103157589
            1603127720 -896687217 1691284878</internalNodes>
          <leafValues>
            -7.1933484077453613e-001 4.1930401325225830e-001</leafValues></_>
        <_>
          <internalNodes>
            0 -1 58 1073907455 -234310208 1146623037 -31542774
            1091047673 -64777323 1233979647 -537657196</internalNodes>
          <leafValues>
            -6.8922394514083862e-001 4.0983203053474426e-001</leafValues></_></weakClassifiers></_>
    <!-- stage 8 -->
    <_>
      <maxWeakCount>6</maxWeakCount>
      <stageThreshold>-1.6422039270401001e+000</stageThreshold>
      <weakClassifiers>
        <_>
          <internalNodes>
            0 -1 90 -746007330 -212562864 -603963241 -137166831
            -1426021443 -343866676 178384607 -536936258</internalNodes>
          <leafValues>
            -6.9835036993026733e-001 4.7368422150611877e-001</leafValues></_>
        <_>
          <internalNodes>
            0 -1 80 -221263866 -268271417 -805121008 -712883680
            -1044856830 17107552 -263551312 -205789537</internalNodes>
          <leafValues>
            -5.3914296627044678e-001 5.4969990253448486e-001</leafValues></_>
        <_>
          <internalNodes>
            0 -1 49 -49179713 -547925669 51459486 -536994890 -1442666337
            -829798118 -1156863061 1295786427</internalNodes>
          <leafValues>
            -6.8533825874328613e-001 4.2813405394554138e-001</leafValues></_>
        <_>
          <internalNodes>
            0 -1 118 -1143997502 -153173030 -1791668015 -12005218
            -1324356705 -189677406 432661903 1071579359</internalNodes>
          <leafValues>
            -7.8375166654586792e-001 3.6704689264297485e-001</leafValues></_>
        <_>
          <internalNodes>
            0 -1 67 -769679318 1998926280 1880162507 960727691
            -220352017 1904287758 -620119377 -269752657</internalNodes>
          <leafValues>
            -5.3094363212585449e-001 5.5731940269470215e-001</leafValues></_>
        <_>
          <internalNodes>
            0 -1 4 -619490305 -78642765 1360232733 -36958064 -358446903
            906199719 -1416849272 -149589838</internalNodes>
          <leafValues>
            -6.0641241073608398e-001 5.2075290679931641e-001</leafValues></_></weakClassifiers></_>
    <!-- stage 9 -->
    <_>
      <maxWeakCount>6</maxWeakCount>
      <stageThreshold>-1.4970685243606567e+000</stageThreshold>
      <weakClassifiers>
        <_>
          <internalNodes>
            0 -1 119 -780087088 -750214504 1091695061 -745434927
            -1073706353 -1199570934 -2147245893 -1074853478</internalNodes>
          <leafValues>
            -6.9101339578628540e-001 5.5410689115524292e-001</leafValues></_>
        <_>
          <internalNodes>
            0 -1 17 -649661152 -1878884013 -2130492791 -1081749033
            -1054878283 -2130558661 -444001857 -114076897</internalNodes>
          <leafValues>
            -6.4619588851928711e-001 5.4287827014923096e-001</leafValues></_>
        <_>
          <internalNodes>
            0 -1 88 -360201598 -2113789818 8459266 -144715638 1342341283
            134398080 1092223735 -153095437</internalNodes>
          <leafValues>
            -5.9529680013656616e-001 5.3378653526306152e-001</leafValues></_>
        <_>
          <internalNodes>
            0 -1 43 -167467728 -2141925238 -1073655604 -1061027838
            -775359565 631939 -741634628 -1980804660</internalNodes>
          <leafValues>
            -6.3870865106582642e-001 4.7601717710494995e-001</leafValues></_>
        <_>
          <internalNodes>
            0 -1 77 -796409214 293638156 536940544 -245956342 169
            9060488 1610613227 -235951301</internalNodes>
          <leafValues>
            -5.1961779594421387e-001 5.9990727901458740e-001</leafValues></_>
        <_>
          <internalNodes>
            0 -1 76 -125587286 -796667832 269492234 1367859459
            -602802038 1074266194 1896009935 1355806606</internalNodes>
          <leafValues>
            -6.4048689603805542e-001 5.2534210681915283e-001</leafValues></_></weakClassifiers></_>
    <!-- stage 10 -->
    <_>
      <maxWeakCount>7</maxWeakCount>
      <stageThreshold>-1.4778847694396973e+000</stageThreshold>
      <weakClassifiers>
        <_>
          <internalNodes>
            0 -1 56 -629122593 -4782984 638732543 -11320097 -914310146
            -73489268 407029947 -4324118</internalNodes>
          <leafValues>
            -6.5338343381881714e-001 4.9307480454444885e-001</leafValues></_>
        <_>
          <internalNodes>
            0 -1 114 1502869435 -2033273386 -1072316014 -14684016
            1627509739 -150255337 -158870561 805292031</internalNodes>
          <leafValues>
            -8.3646321296691895e-001 3.4488070011138916e-001</leafValues></_>
        <_>
          <internalNodes>
            0 -1 41 -77594645 -656470884 -1995320674 -625337196
            1737207793 1642422429 -207908112 -138414403</internalNodes>
          <leafValues>
            -6.2238466739654541e-001 4.1774839162826538e-001</leafValues></_>
        <_>
          <internalNodes>
            0 -1 102 -1188515600 1777553748 -1789882915 -541163051
            439417845 -1380762961 195997179 -1615068931</internalNodes>
          <leafValues>
            -6.0568940639495850e-001 4.4769293069839478e-001</leafValues></_>
        <_>
          <internalNodes>
            0 -1 34 1855687707 -45887201 -612280329 -719728231 -8355669
            1330118857 -86975493 1174377199</internalNodes>
          <leafValues>
            -6.7685723304748535e-001 4.0089568495750427e-001</leafValues></_>
        <_>
          <internalNodes>
            0 -1 75 -942677342 -274494590 -1459580784 -552744942
            -156478980 176324752 365510709 -407116030</internalNodes>
          <leafValues>
            -5.0978225469589233e-001 5.5524438619613647e-001</leafValues></_>
        <_>
          <internalNodes>
            0 -1 82 1359475127 -216858280 286474578 1561989282 310610650
            -1173284597 981727512 413687484</internalNodes>
          <leafValues>
            -8.5306942462921143e-001 3.3316013216972351e-001</leafValues></_></weakClassifiers></_>
    <!-- stage 11 -->
    <_>
      <maxWeakCount>7</maxWeakCount>
      <stageThreshold>-1.4755443334579468e+000</stageThreshold>
      <weakClassifiers>
        <_>
          <internalNodes>
            0 -1 55 1430279295 -99609804 -2130408323 -4567021
            -1040144197 -6250488 524543 -537001843</internalNodes>
          <leafValues>
            -7.0910626649856567e-001 2.9702970385551453e-001</leafValues></_>
        <_>
          <internalNodes>
            0 -1 99 -1688997635 -816205005 2216183 -1057 -988684257
            -551562493 -2048659221 -671760133</internalNodes>
          <leafValues>
            -5.9260100126266479e-001 4.4174098968505859e-001</leafValues></_>
        <_>
          <internalNodes>
            0 -1 121 -145239661 -1853693793 -2145301091 -1814759668
            -749940597 -805174189 -597434160 1056958463</internalNodes>
          <leafValues>
            -7.2842580080032349e-001 3.3972993493080139e-001</leafValues></_>
        <_>
          <internalNodes>
            0 -1 15 -680462608 -585981005 -788409432 -1324115513
            -812389019 -1111935740 -929082197 -709372649</internalNodes>
          <leafValues>
            -5.6660640239715576e-001 4.2729595303535461e-001</leafValues></_>
        <_>
          <internalNodes>
            0 -1 74 -297338494 -299233142 -1274817120 -1395777014
            -888493564 1146298881 -1853136796 -1242826792</internalNodes>
          <leafValues>
            -6.4530420303344727e-001 3.8418096303939819e-001</leafValues></_>
        <_>
          <internalNodes>
            0 -1 72 1377796778 1034223958 355541123 -134856251
            1644272015 1924860928 1107470555 2141171466</internalNodes>
          <leafValues>
            -6.3329172134399414e-001 4.3539473414421082e-001</leafValues></_>
        <_>
          <internalNodes>
            0 -1 66 -265629197 -405290466 1444075963 1313153695
            -251617150 2030232202 2057370555 -633197858</internalNodes>
          <leafValues>
            -6.4597815275192261e-001 3.9975273609161377e-001</leafValues></_></weakClassifiers></_>
    <!-- stage 12 -->
    <_>
      <maxWeakCount>7</maxWeakCount>
      <stageThreshold>-1.7434811592102051e+000</stageThreshold>
      <weakClassifiers>
        <_>
          <internalNodes>
            0 -1 47 -650667809 -90230625 -1694494441 -2199138 -91711233
            -1399818081 -871445649 -813743921</internalNodes>
          <leafValues>
            -7.2910928726196289e-001 1.7109633982181549e-001</leafValues></_>
        <_>
          <internalNodes>
            0 -1 2 -782249729 -1009024833 15786463 -771783809
            -2081718101 -1734360642 -662976340 -135924928</internalNodes>
          <leafValues>
            -8.7159347534179688e-001 2.2955396771430969e-001</leafValues></_>
        <_>
          <internalNodes>
            0 -1 117 -921644880 -845344682 -140387461 -9488674
            -1652436293 -1432118853 453711263 -1612771301</internalNodes>
          <leafValues>
            -5.7908666133880615e-001 4.0479806065559387e-001</leafValues></_>
        <_>
          <internalNodes>
            0 -1 20 -270536882 231280787 -578707056 -31764021 -611320411
            1093212321 -2118000412 99586803</internalNodes>
          <leafValues>
            -8.8501638174057007e-001 2.8773111104965210e-001</leafValues></_>
        <_>
          <internalNodes>
            0 -1 60 1555238903 2117414409 1427184119 707861599
            -603957093 -1140553703 -780035377 -1097891845</internalNodes>
          <leafValues>
            -5.7957726716995239e-001 4.2256036400794983e-001</leafValues></_>
        <_>
          <internalNodes>
            0 -1 126 -1141375181 -1571766298 -1039042250 -1283338218
            -1861893401 1755545728 -385109648 -1073752114</internalNodes>
          <leafValues>
            -6.0925966501235962e-001 4.0703967213630676e-001</leafValues></_>
        <_>
          <internalNodes>
            0 -1 96 -1954393346 1360091164 -1022875687 1567922192
            769014457 -1411802997 150997245 535707844</internalNodes>
          <leafValues>
            -6.7176127433776855e-001 3.5352936387062073e-001</leafValues></_></weakClassifiers></_>
    <!-- stage 13 -->
    <_>
      <maxWeakCount>7</maxWeakCount>
      <stageThreshold>-1.7443810701370239e+000</stageThreshold>
      <weakClassifiers>
        <_>
          <internalNodes>
            0 -1 28 -1759290977 -163147418 -1862167777 -4845154
            -1423918914 -290924355 688175759 -547405733</internalNodes>
          <leafValues>
            -7.1286684274673462e-001 1.6880890727043152e-001</leafValues></_>
        <_>
          <internalNodes>
            0 -1 0 -5242881 -774225569 -1056886534 -111746338 -610547204
            -1664450530 -536220684 -1059792428</internalNodes>
          <leafValues>
            -9.5441710948944092e-001 1.7478738725185394e-001</leafValues></_>
        <_>
          <internalNodes>
            0 -1 12 -652745737 -648031841 -1927024247 -720253477
            -745745801 -791559561 2044155659 1940084535</internalNodes>
          <leafValues>
            -7.8228229284286499e-001 2.4366229772567749e-001</leafValues></_>
        <_>
          <internalNodes>
            0 -1 92 -662515474 -418246190 -1543392003 -1646853902 545691
            -1149075309 148242683 1606354105</internalNodes>
          <leafValues>
            -6.3283550739288330e-001 3.7940439581871033e-001</leafValues></_>
        <_>
          <internalNodes>
            0 -1 103 -585933575 -1986702891 -2146121609 -2015395245
            -939284272 -1644161008 -2103256853 522142738</internalNodes>
          <leafValues>
            -7.0788741111755371e-001 3.1517276167869568e-001</leafValues></_>
        <_>
          <internalNodes>
            0 -1 116 -241110888 -791194723 2130784601 -544206563
            855766524 -1097727303 696832959 -1678632774</internalNodes>
          <leafValues>
            -4.6507629752159119e-001 5.4594469070434570e-001</leafValues></_>
        <_>
          <internalNodes>
            0 -1 59 -858789214 1158079364 1099418402 1112440867
            -778368731 1124712580 1929578272 -226754709</internalNodes>
          <leafValues>
            -5.3533667325973511e-001 4.6362221240997314e-001</leafValues></_></weakClassifiers></_>
    <!-- stage 14 -->
    <_>
      <maxWeakCount>7</maxWeakCount>
      <stageThreshold>-1.5482970476150513e+000</stageThreshold>
      <weakClassifiers>
        <_>
          <internalNodes>
            0 -1 50 1963193023 -611548654 -2147471273 -2985978
            -384845381 -81780068 -1367876977 -269508561</internalNodes>
          <leafValues>
            -6.6706973314285278e-001 3.0299666523933411e-001</leafValues></_>
        <_>
          <internalNodes>
            0 -1 44 -2119807 -638334577 -334771858 -439631573 -369111100
            -977629818 -389313847 -977553793</internalNodes>
          <leafValues>
            -5.5168080329895020e-001 4.3270751833915710e-001</leafValues></_>
        <_>
          <internalNodes>
            0 -1 95 -1626880774 -540507621 -989495276 89858615 17257129
            -2029514749 226726790 -712514838</internalNodes>
          <leafValues>
            -5.1190656423568726e-001 4.7050487995147705e-001</leafValues></_>
        <_>
          <internalNodes>
            0 -1 113 -1377894418 -1364669780 -440215549 -953621468
            -804734289 -1416394359 2039204851 -1886650369</internalNodes>
          <leafValues>
            -8.5476350784301758e-001 2.7270758152008057e-001</leafValues></_>
        <_>
          <internalNodes>
            0 -1 45 1312753187 -6565291 -468624929 -1927958109 194599641
            1157853611 -1046414913 163218091</internalNodes>
          <leafValues>
            -7.2792905569076538e-001 3.0227357149124146e-001</leafValues></_>
        <_>
          <internalNodes>
            0 -1 85 117604570 -652769006 419496025 -149503004 550142143
            -83380162 176357816 -1612422960</internalNodes>
          <leafValues>
            -6.4889419078826904e-001 3.4868395328521729e-001</leafValues></_>
        <_>
          <internalNodes>
            0 -1 54 -257691230 -938782558 -738000248 -175926272
            -1424757797 26968243 51308464 -210252306</internalNodes>
          <leafValues>
            -5.2291929721832275e-001 4.6705445647239685e-001</leafValues></_></weakClassifiers></_>
    <!-- stage 15 -->
    <_>
      <maxWeakCount>8</maxWeakCount>
      <stageThreshold>-1.8101676702499390e+000</stageThreshold>
      <weakClassifiers>
        <_>
          <internalNodes>
            0 -1 16 -134219797 -2779651 305332366 -52684770 1922809583
            1937832367 -1164219673 -16777217</internalNodes>
          <leafValues>
            -7.5592887401580811e-001 1.0898379981517792e-001</leafValues></_>
        <_>
          <internalNodes>
            0 -1 115 -1616382505 -111487694 630317535 -78980562
            429389022 -75308079 149127679 -48901</internalNodes>
          <leafValues>
            -5.0843197107315063e-001 4.3699264526367188e-001</leafValues></_>
        <_>
          <internalNodes>
            0 -1 52 -206602074 -779762801 -1597710300 -100691729
            -237246576 894259393 -204903638 1908398975</internalNodes>
          <leafValues>
            -5.8732831478118896e-001 3.8506251573562622e-001</leafValues></_>
        <_>
          <internalNodes>
            0 -1 63 -715796001 2102886743 1413551578 238244123
            -654146630 -267378402 -542401893 -1275053122</internalNodes>
          <leafValues>
            -6.4534246921539307e-001 3.4253299236297607e-001</leafValues></_>
        <_>
          <internalNodes>
            0 -1 109 -744424272 -1982021454 -1992075853 -1678180184
            615573685 -1062194742 -1148987483 -1409875740</internalNodes>
          <leafValues>
            -5.3363960981369019e-001 4.4020131230354309e-001</leafValues></_>
        <_>
          <internalNodes>
            0 -1 73 2032136906 2003930059 -1878490974 -3980113
            -1727970928 1360625793 -242834902 -248906962</internalNodes>
          <leafValues>
            -5.1989299058914185e-001 4.6397846937179565e-001</leafValues></_>
        <_>
          <internalNodes>
            0 -1 8 -212345857 -687810145 1098913033 719487839 1346907071
            -226277240 -1055319893 989817373</internalNodes>
          <leafValues>
            -6.8785637617111206e-001 3.7164250016212463e-001</leafValues></_>
        <_>
          <internalNodes>
            0 -1 64 -266611764 -171170806 8389142 833569675 -213674621
            1426753665 -484193806 -481299506</internalNodes>
          <leafValues>
            -5.0585430860519409e-001 4.7406694293022156e-001</leafValues></_></weakClassifiers></_>
    <!-- stage 16 -->
    <_>
      <maxWeakCount>7</maxWeakCount>
      <stageThreshold>-1.5997461080551147e+000</stageThreshold>
      <weakClassifiers>
        <_>
          <internalNodes>
            0 -1 40 1402674463 807227414 -1827466981 -576841762
            -117163623 -391611970 -1408579153 -549497777</internalNodes>
          <leafValues>
            -7.1898496150970459e-001 1.1802233010530472e-001</leafValues></_>
        <_>
          <internalNodes>
            0 -1 78 -167781893 -544517764 823384893 -582855976
            1913187326 -376905520 -1196223555 -994029568</internalNodes>
          <leafValues>
            -6.9536244869232178e-001 2.6039937138557434e-001</leafValues></_>
        <_>
          <internalNodes>
            0 -1 70 -218064650 -232943616 135285983 -853581674
            1317075182 -8388432 1244923583 -549584234</internalNodes>
          <leafValues>
            -5.5697715282440186e-001 3.9958283305168152e-001</leafValues></_>
        <_>
          <internalNodes>
            0 -1 16 -228727377 1405686117 -1861680402 -555954082
            -125867185 1905432896 -2029355354 -151522593</internalNodes>
          <leafValues>
            -5.6797063350677490e-001 4.3439427018165588e-001</leafValues></_>
        <_>
          <internalNodes>
            0 -1 84 -1019020434 -1257889586 168413390 1571717314
            1476834479 1102473513 1368032492 -739781497</internalNodes>
          <leafValues>
            -5.4678112268447876e-001 4.1460436582565308e-001</leafValues></_>
        <_>
          <internalNodes>
            0 -1 86 -1119767554 -483940184 323293344 1692999979
            684445883 51163393 -657728293 1143991035</internalNodes>
          <leafValues>
            -6.7027586698532104e-001 3.5669723153114319e-001</leafValues></_>
        <_>
          <internalNodes>
            0 -1 65 -211874401 1934059022 273715542 868114570 -131746821
            8776491 -77864215 1372580654</internalNodes>
          <leafValues>
            -6.3852787017822266e-001 3.3436536788940430e-001</leafValues></_></weakClassifiers></_>
    <!-- stage 17 -->
    <_>
      <maxWeakCount>7</maxWeakCount>
      <stageThreshold>-1.5043687820434570e+000</stageThreshold>
      <weakClassifiers>
        <_>
          <internalNodes>
            0 -1 24 -78118922 -561325861 -1052057681 -1248089441
            -640693761 -789069617 -35063633 -33599649</internalNodes>
          <leafValues>
            -6.5497553348541260e-001 2.4086020886898041e-001</leafValues></_>
        <_>
          <internalNodes>
            0 -1 19 -949231775 -1480358037 1931607827 -2631177 782479796
            -98844479 1505407093 -2882283</internalNodes>
          <leafValues>
            -6.1576652526855469e-001 3.1340003013610840e-001</leafValues></_>
        <_>
          <internalNodes>
            0 -1 30 1593905435 -988736249 17111297 -1894824065
            -234646322 -1228728189 -526309126 -1327712033</internalNodes>
          <leafValues>
            -6.9166672229766846e-001 3.0443844199180603e-001</leafValues></_>
        <_>
          <internalNodes>
            0 -1 98 -1860872549 125317394 -2060435376 -686731184
            1342230715 33652993 -920567601 500913407</internalNodes>
          <leafValues>
            -7.9563337564468384e-001 2.9453831911087036e-001</leafValues></_>
        <_>
          <internalNodes>
            0 -1 29 -1684278290 -1026637683 -2146844198 -566311682
            -1841580921 -2004712525 23130321 -706756133</internalNodes>
          <leafValues>
            -5.3637945652008057e-001 4.0646710991859436e-001</leafValues></_>
        <_>
          <internalNodes>
            0 -1 87 -334996994 -45082160 -523746275 -583188416
            -2097116237 -651591646 589235183 1274757372</internalNodes>
          <leafValues>
            -5.1816308498382568e-001 4.7098559141159058e-001</leafValues></_>
        <_>
          <internalNodes>
            0 -1 112 -81725264 -993590340 -1827430953 -942865308
            -1324313925 -352188013 -1994417473 -1614872411</internalNodes>
          <leafValues>
            -6.2844926118850708e-001 3.6926415562629700e-001</leafValues></_></weakClassifiers></_>
    <!-- stage 18 -->
    <_>
      <maxWeakCount>9</maxWeakCount>
      <stageThreshold>-1.6627342700958252e+000</stageThreshold>
      <weakClassifiers>
        <_>
          <internalNodes>
            0 -1 14 -708218145 -560873420 947960991 -653223 454568173
            -113827984 1078232251 -696169</internalNodes>
          <leafValues>
            -6.7706578969955444e-001 2.2178217768669128e-001</leafValues></_>
        <_>
          <internalNodes>
            0 -1 124 -44051533 -1656303486 -804632429 -1122742004
            -787095113 -640999085 -150742508 -1359413252</internalNodes>
          <leafValues>
            -7.6555150747299194e-001 2.4038781225681305e-001</leafValues></_>
        <_>
          <internalNodes>
            0 -1 68 -672670817 -652578754 235471116 -414314144
            -159153206 -368009158 -914234693 -991702558</internalNodes>
          <leafValues>
            -4.7354376316070557e-001 4.4486114382743835e-001</leafValues></_>
        <_>
          <internalNodes>
            0 -1 31 -1861287941 -1764507172 -1584213036 486202012
            -247616925 82034859 -1077198272 -654836259</internalNodes>
          <leafValues>
            -6.3448506593704224e-001 3.2508844137191772e-001</leafValues></_>
        <_>
          <internalNodes>
            0 -1 79 -99364779 1366819446 -1660872587 528220563
            1514289514 -874803177 -1979080249 1261830184</internalNodes>
          <leafValues>
            -6.6248375177383423e-001 3.5110700130462646e-001</leafValues></_>
        <_>
          <internalNodes>
            0 -1 81 -294675778 -959207593 -1342164598 -150748478
            -600842321 138863119 1905267131 1355214283</internalNodes>
          <leafValues>
            -6.5023612976074219e-001 3.2012078166007996e-001</leafValues></_>
        <_>
          <internalNodes>
            0 -1 91 1359672542 -1556966376 1359270991 -648108974
            1309259517 -1088742247 172333215 -196365</internalNodes>
          <leafValues>
            -4.7350630164146423e-001 4.7197762131690979e-001</leafValues></_>
        <_>
          <internalNodes>
            0 -1 22 -213729357 1381550935 285290743 -2141675362
            -1377357445 -198033399 -760273985 -234983811</internalNodes>
          <leafValues>
            -5.4470753669738770e-001 4.0945124626159668e-001</leafValues></_>
        <_>
          <internalNodes>
            0 -1 62 -35667198 1080678542 -1039408444 -30690908
            1698826835 25528595 -209033292 -525341971</internalNodes>
          <leafValues>
            -5.6955897808074951e-001 3.8814547657966614e-001</leafValues></_></weakClassifiers></_>
    <!-- stage 19 -->
    <_>
      <maxWeakCount>8</maxWeakCount>
      <stageThreshold>-1.9734592437744141e+000</stageThreshold>
      <weakClassifiers>
        <_>
          <internalNodes>
            0 -1 33 -891880140 1896141215 -2124677129 1068491671
            -347087427 -1681946463 -67232321 -33604098</internalNodes>
          <leafValues>
            -6.9132417440414429e-001 1.1073825508356094e-001</leafValues></_>
        <_>
          <internalNodes>
            0 -1 57 -162538514 1413515270 -788397912 -807081984
            -234372629 -2145341566 -165030469 -1043335798</internalNodes>
          <leafValues>
            -4.5209866762161255e-001 4.2895415425300598e-001</leafValues></_>
        <_>
          <internalNodes>
            0 -1 107 -1462965286 -1084901449 -1676430345 -1076125353
            90359799 446419489 1996579787 532349159</internalNodes>
          <leafValues>
            -6.9320887327194214e-001 2.8474819660186768e-001</leafValues></_>
        <_>
          <internalNodes>
            0 -1 123 -606080621 -639696647 16875738 -244228091
            1628539017 -1290599800 -778448128 1847647136</internalNodes>
          <leafValues>
            -7.3824006319046021e-001 2.9270485043525696e-001</leafValues></_>
        <_>
          <internalNodes>
            0 -1 46 -1477709023 -1362522109 358460828 -1365356361
            -887116843 -1063367936 1690034340 -704710924</internalNodes>
          <leafValues>
            -6.4801573753356934e-001 3.0659964680671692e-001</leafValues></_>
        <_>
          <internalNodes>
            0 -1 127 -607518757 -1504384952 1074889472 1253351684
            -1996223744 -989851640 969852946 -1897899221</internalNodes>
          <leafValues>
            -5.6149321794509888e-001 3.8888797163963318e-001</leafValues></_>
        <_>
          <internalNodes>
            0 -1 100 -1848378213 -850378981 -2129571726 -1223171840
            151568413 -1157584622 25296068 -196034497</internalNodes>
          <leafValues>
            -5.7695943117141724e-001 3.7647816538810730e-001</leafValues></_>
        <_>
          <internalNodes>
            0 -1 89 -671033312 -1728966632 -1856761347 -539922128
            1007271417 -1162292855 207750141 1061044604</internalNodes>
          <leafValues>
            -5.7445859909057617e-001 3.9959487318992615e-001</leafValues></_></weakClassifiers></_></stages>
  <features>
    <_>
      <rect>
        0 0 1 3</rect></_>
    <_>
      <rect>
        0 0 2 2</rect></_>
    <_>
      <rect>
        0 0 3 5</rect></_>
    <_>
      <rect>
        0 0 4 2</rect></_>
    <_>
      <rect>
        0 0 6 1</rect></_>
    <_>
      <rect>
        0 1 3 2</rect></_>
    <_>
      <rect>
        0 3 3 2</rect></_>
    <_>
      <rect>
        0 4 10 5</rect></_>
    <_>
      <rect>
        0 5 1 4</rect></_>
    <_>
      <rect>
        0 5 5 4</rect></_>
    <_>
      <rect>
        0 5 6 5</rect></_>
    <_>
      <rect>
        0 6 3 2</rect></_>
    <_>
      <rect>
        0 6 4 4</rect></_>
    <_>
      <rect>
        0 6 5 4</rect></_>
    <_>
      <rect>
        0 7 9 1</rect></_>
    <_>
      <rect>
        0 8 2 4</rect></_>
    <_>
      <rect>
        0 9 2 1</rect></_>
    <_>
      <rect>
        0 10 2 3</rect></_>
    <_>
      <rect>
        0 11 10 3</rect></_>
    <_>
      <rect>
        0 17 1 1</rect></_>
    <_>
      <rect>
        0 17 3 1</rect></_>
    <_>
      <rect>
        1 7 1 2</rect></_>
    <_>
      <rect>
        1 8 1 2</rect></_>
    <_>
      <rect>
        1 8 6 4</rect></_>
    <_>
      <rect>
        1 9 2 3</rect></_>
    <_>
      <rect>
        1 10 6 3</rect></_>
    <_>
      <rect>
        1 11 4 3</rect></_>
    <_>
      <rect>
        2 0 9 3</rect></_>
    <_>
      <rect>
        2 3 8 2</rect></_>
    <_>
      <rect>
        2 4 1 1</rect></_>
    <_>
      <rect>
        2 4 9 4</rect></_>
    <_>
      <rect>
        2 6 1 1</rect></_>
    <_>
      <rect>
        2 7 1 1</rect></_>
    <_>
      <rect>
        2 11 1 2</rect></_>
    <_>
      <rect>
        2 11 6 3</rect></_>
    <_>
      <rect>
        2 17 1 1</rect></_>
    <_>
      <rect>
        3 0 9 3</rect></_>
    <_>
      <rect>
        3 0 9 4</rect></_>
    <_>
      <rect>
        3 0 9 5</rect></_>
    <_>
      <rect>
        3 2 9 4</rect></_>
    <_>
      <rect>
        3 3 8 2</rect></_>
    <_>
      <rect>
        3 7 1 1</rect></_>
    <_>
      <rect>
        3 10 2 3</rect></_>
    <_>
      <rect>
        3 13 1 2</rect></_>
    <_>
      <rect>
        3 14 2 2</rect></_>
    <_>
      <rect>
        3 14 4 2</rect></_>
    <_>
      <rect>
        3 16 1 1</rect></_>
    <_>
      <rect>
        4 2 7 2</rect></_>
    <_>
      <rect>
        4 15 1 1</rect></_>
    <_>
      <rect>
        5 0 8 2</rect></_>
    <_>
      <rect>
        5 3 4 2</rect></_>
    <_>
      <rect>
        5 3 6 2</rect></_>
    <_>
      <rect>
        5 11 2 2</rect></_>
    <_>
      <rect>
        6 0 8 2</rect></_>
    <_>
      <rect>
        6 4 1 1</rect></_>
    <_>
      <rect>
        6 7 7 1</rect></_>
    <_>
      <rect>
        6 8 7 1</rect></_>
    <_>
      <rect>
        7 4 1 2</rect></_>
    <_>
      <rect>
        7 6 6 1</rect></_>
    <_>
      <rect>
        7 10 1 2</rect></_>
    <_>
      <rect>
        7 11 4 3</rect></_>
    <_>
      <rect>
        7 13 2 2</rect></_>
    <_>
      <rect>
        7 14 1 1</rect></_>
    <_>
      <rect>
        8 6 4 4</rect></_>
    <_>
      <rect>
        8 8 2 2</rect></_>
    <_>
      <rect>
        8 8 2 3</rect></_>
    <_>
      <rect>
        8 8 5 2</rect></_>
    <_>
      <rect>
        8 14 2 2</rect></_>
    <_>
      <rect>
        9 1 1 4</rect></_>
    <_>
      <rect>
        9 1 7 6</rect></_>
    <_>
      <rect>
        9 8 6 1</rect></_>
    <_>
      <rect>
        9 10 2 3</rect></_>
    <_>
      <rect>
        9 14 2 2</rect></_>
    <_>
      <rect>
        10 7 2 2</rect></_>
    <_>
      <rect>
        11 10 1 1</rect></_>
    <_>
      <rect>
        11 10 1 2</rect></_>
    <_>
      <rect>
        11 10 2 2</rect></_>
    <_>
      <rect>
        11 17 1 1</rect></_>
    <_>
      <rect>
        12 0 2 1</rect></_>
    <_>
      <rect>
        12 2 4 2</rect></_>
    <_>
      <rect>
        12 10 1 1</rect></_>
    <_>
      <rect>
        12 10 2 2</rect></_>
    <_>
      <rect>
        13 0 5 2</rect></_>
    <_>
      <rect>
        13 7 5 3</rect></_>
    <_>
      <rect>
        13 10 2 1</rect></_>
    <_>
      <rect>
        14 5 3 1</rect></_>
    <_>
      <rect>
        14 8 2 4</rect></_>
    <_>
      <rect>
        14 9 4 1</rect></_>
    <_>
      <rect>
        14 16 1 1</rect></_>
    <_>
      <rect>
        15 7 4 1</rect></_>
    <_>
      <rect>
        15 8 3 1</rect></_>
    <_>
      <rect>
        15 8 4 1</rect></_>
    <_>
      <rect>
        15 10 4 1</rect></_>
    <_>
      <rect>
        15 14 5 2</rect></_>
    <_>
      <rect>
        16 0 2 2</rect></_>
    <_>
      <rect>
        16 4 2 4</rect></_>
    <_>
      <rect>
        16 6 3 1</rect></_>
    <_>
      <rect>
        17 2 4 6</rect></_>
    <_>
      <rect>
        18 5 4 5</rect></_>
    <_>
      <rect>
        18 6 3 3</rect></_>
    <_>
      <rect>
        18 7 3 3</rect></_>
    <_>
      <rect>
        18 8 3 1</rect></_>
    <_>
      <rect>
        18 9 3 1</rect></_>
    <_>
      <rect>
        18 10 3 2</rect></_>
    <_>
      <rect>
        18 11 3 3</rect></_>
    <_>
      <rect>
        18 12 4 2</rect></_>
    <_>
      <rect>
        18 13 4 2</rect></_>
    <_>
      <rect>
        18 14 1 2</rect></_>
    <_>
      <rect>
        19 0 2 2</rect></_>
    <_>
      <rect>
        19 11 1 1</rect></_>
    <_>
      <rect>
        19 11 2 1</rect></_>
    <_>
      <rect>
        20 5 3 5</rect></_>
    <_>
      <rect>
        20 11 2 1</rect></_>
    <_>
      <rect>
        20 14 3 2</rect></_>
    <_>
      <rect>
        21 2 3 6</rect></_>
    <_>
      <rect>
        21 8 2 3</rect></_>
    <_>
      <rect>
        21 9 2 1</rect></_>
    <_>
      <rect>
        21 10 2 1</rect></_>
    <_>
      <rect>
        22 8 2 4</rect></_>
    <_>
      <rect>
        22 10 1 1</rect></_>
    <_>
      <rect>
        24 1 2 6</rect></_>
    <_>
      <rect>
        24 2 2 6</rect></_>
    <_>
      <rect>
        27 0 1 3</rect></_>
    <_>
      <rect>
        27 2 1 3</rect></_>
    <_>
      <rect>
        27 3 1 5</rect></_>
    <_>
      <rect>
        27 5 1 5</rect></_>
    <_>
      <rect>
        27 9 1 3</rect></_>
    <_>
      <rect>
        27 14 1 2</rect></_></features></cascade>
</opencv_storage>
