<?xml version="1.0"?>
<opencv_storage>
<cascade>
  <stageType>BOOST</stageType>
  <featureType>LBP</featureType>
  <height>40</height>
  <width>20</width>
  <stageParams>
    <boostType>GAB</boostType>
    <minHitRate>9.9900001287460327e-001</minHitRate>
    <maxFalseAlarm>5.0000000000000000e-001</maxFalseAlarm>
    <weightTrimRate>9.4999999999999996e-001</weightTrimRate>
    <maxDepth>1</maxDepth>
    <maxWeakCount>100</maxWeakCount></stageParams>
  <featureParams>
    <maxCatCount>256</maxCatCount>
    <featSize>1</featSize></featureParams>
  <stageNum>20</stageNum>
  <stages>
    <!-- stage 0 -->
    <_>
      <maxWeakCount>3</maxWeakCount>
      <stageThreshold>-1.2156940698623657e+000</stageThreshold>
      <weakClassifiers>
        <_>
          <internalNodes>
            0 -1 39 -788277505 -651083774 -1073725289 1426784393
            -2147434278 -2013167487 -2013212481 -1057752429</internalNodes>
          <leafValues>
            -9.5215308666229248e-001 8.1719261407852173e-001</leafValues></_>
        <_>
          <internalNodes>
            0 -1 13 -179578401 -654098413 1090638011 -616315501
            -527728498 151027713 -2146793301 823351327</internalNodes>
          <leafValues>
            -8.8637614250183105e-001 7.2864621877670288e-001</leafValues></_>
        <_>
          <internalNodes>
            0 -1 126 -65537 -1312265 -532430082 -333251985 -34603781
            -6622805 1874849790 -16974852</internalNodes>
          <leafValues>
            -8.8301855325698853e-001 6.2283521890640259e-001</leafValues></_></weakClassifiers></_>
    <!-- stage 1 -->
    <_>
      <maxWeakCount>3</maxWeakCount>
      <stageThreshold>-1.2526762485504150e+000</stageThreshold>
      <weakClassifiers>
        <_>
          <internalNodes>
            0 -1 7 -1 -35663465 1560400323 -539503849 -116208385
            -1153849213 -1685071633 -262935565</internalNodes>
          <leafValues>
            -9.3750000000000000e-001 6.0585367679595947e-001</leafValues></_>
        <_>
          <internalNodes>
            0 -1 111 -2097153 -44313229 -779815969 -254098062 -439354417
            -183842557 -74712837 -255852577</internalNodes>
          <leafValues>
            -8.2849407196044922e-001 6.2269878387451172e-001</leafValues></_>
        <_>
          <internalNodes>
            0 -1 9 -2097153 -527361 -33559073 -138747393 -156237828
            -603980849 -105911555 -197804</internalNodes>
          <leafValues>
            -9.3787497282028198e-001 5.5675143003463745e-001</leafValues></_></weakClassifiers></_>
    <!-- stage 2 -->
    <_>
      <maxWeakCount>4</maxWeakCount>
      <stageThreshold>-2.1787912845611572e+000</stageThreshold>
      <weakClassifiers>
        <_>
          <internalNodes>
            0 -1 33 -2886661 -13124833 -1987859877 -4984805 -245367041
            -4208238 -106173733 -185090057</internalNodes>
          <leafValues>
            -9.3322902917861938e-001 5.0366300344467163e-001</leafValues></_>
        <_>
          <internalNodes>
            0 -1 25 -75759617 -6343717 -1182706209 -8654513 1796166471
            -5547761 1906657109 -140292</internalNodes>
          <leafValues>
            -9.3629360198974609e-001 4.5258557796478271e-001</leafValues></_>
        <_>
          <internalNodes>
            0 -1 12 -614990337 -246050409 1494340407 -643841667
            1917338074 -6775792 -80786580 -3310729</internalNodes>
          <leafValues>
            -7.9789787530899048e-001 5.1572209596633911e-001</leafValues></_>
        <_>
          <internalNodes>
            0 -1 60 -538970145 -698367637 1971785503 -623390114
            -475283269 -1105839863 -74720929 808976383</internalNodes>
          <leafValues>
            -8.6229467391967773e-001 4.8862925171852112e-001</leafValues></_></weakClassifiers></_>
    <!-- stage 3 -->
    <_>
      <maxWeakCount>4</maxWeakCount>
      <stageThreshold>-2.0642857551574707e+000</stageThreshold>
      <weakClassifiers>
        <_>
          <internalNodes>
            0 -1 3 -721944585 -234900257 -141561345 -7899141 -338960641
            -268457029 -25427969 -34341006</internalNodes>
          <leafValues>
            -8.3723199367523193e-001 5.0052249431610107e-001</leafValues></_>
        <_>
          <internalNodes>
            0 -1 125 -1 -549103653 -653789889 -133377725 -137440551
            -223673820 2139871961 -151191556</internalNodes>
          <leafValues>
            -9.2107701301574707e-001 4.5710647106170654e-001</leafValues></_>
        <_>
          <internalNodes>
            0 -1 19 -76023937 -134229505 -712314369 -33752737 2066438773
            -82851702 2068407164 -131083</internalNodes>
          <leafValues>
            -7.8055924177169800e-001 5.3055089712142944e-001</leafValues></_>
        <_>
          <internalNodes>
            0 -1 49 -20056491 -39869969 -719201826 -10749989 -1052867
            -6569141 -276177924 -193134608</internalNodes>
          <leafValues>
            -8.9100223779678345e-001 4.7458237409591675e-001</leafValues></_></weakClassifiers></_>
    <!-- stage 4 -->
    <_>
      <maxWeakCount>5</maxWeakCount>
      <stageThreshold>-1.4402455091476440e+000</stageThreshold>
      <weakClassifiers>
        <_>
          <internalNodes>
            0 -1 41 -134218753 -146683633 -1005678405 -36439925
            -611865872 -662470592 -912932612 -8912897</internalNodes>
          <leafValues>
            -7.6320582628250122e-001 5.3751540184020996e-001</leafValues></_>
        <_>
          <internalNodes>
            0 -1 35 -614466593 -544486013 1035060407 -7395057 -879760465
            -1142208373 -1444175365 -722997273</internalNodes>
          <leafValues>
            -8.1477880477905273e-001 4.8504307866096497e-001</leafValues></_>
        <_>
          <internalNodes>
            0 -1 28 -48759297 -6336365 -149302273 -10539587 579564133
            -25452391 903607167 -71501188</internalNodes>
          <leafValues>
            -7.8195601701736450e-001 5.1463556289672852e-001</leafValues></_>
        <_>
          <internalNodes>
            0 -1 97 -2621581 1930656027 1359043899 269626650 -620562113
            924001043 -670381317 1946156031</internalNodes>
          <leafValues>
            -7.6162064075469971e-001 4.7410643100738525e-001</leafValues></_>
        <_>
          <internalNodes>
            0 -1 14 -236981249 -574099325 -786623877 -135363080
            -926811176 -2104977335 -243047727 -13305996</internalNodes>
          <leafValues>
            -8.5100275278091431e-001 4.5950487256050110e-001</leafValues></_></weakClassifiers></_>
    <!-- stage 5 -->
    <_>
      <maxWeakCount>5</maxWeakCount>
      <stageThreshold>-1.6581455469131470e+000</stageThreshold>
      <weakClassifiers>
        <_>
          <internalNodes>
            0 -1 54 -867173409 -549480237 1459686751 -11548897
            -1277429825 -7650901 -71320673 -50857041</internalNodes>
          <leafValues>
            -7.8661495447158813e-001 4.0443506836891174e-001</leafValues></_>
        <_>
          <internalNodes>
            0 -1 21 -169878017 2145344351 -987769380 -543309431
            -1182184587 1931477521 -913675588 1071512495</internalNodes>
          <leafValues>
            -8.5494798421859741e-001 3.7916144728660583e-001</leafValues></_>
        <_>
          <internalNodes>
            0 -1 11 -673451009 -548943473 -2130357985 -573976567
            -775698177 -913865591 -792247708 -175244</internalNodes>
          <leafValues>
            -8.3890193700790405e-001 3.8746851682662964e-001</leafValues></_>
        <_>
          <internalNodes>
            0 -1 2 -259922958 -754724489 18372310 -674135729 -1465022017
            -812973605 -548824834 -195953854</internalNodes>
          <leafValues>
            -7.9490339756011963e-001 4.4256475567817688e-001</leafValues></_>
        <_>
          <internalNodes>
            0 -1 26 -707004933 -747642685 1091293457 -237010469
            -1282781068 -1173684053 -435436623 -67306852</internalNodes>
          <leafValues>
            -7.7981930971145630e-001 3.9085218310356140e-001</leafValues></_></weakClassifiers></_>
    <!-- stage 6 -->
    <_>
      <maxWeakCount>5</maxWeakCount>
      <stageThreshold>-1.4676589965820313e+000</stageThreshold>
      <weakClassifiers>
        <_>
          <internalNodes>
            0 -1 56 -673981473 -82077421 -1651924771 -73821153 -70272007
            -10774391 -1182017089 -184565761</internalNodes>
          <leafValues>
            -7.4906015396118164e-001 4.0295118093490601e-001</leafValues></_>
        <_>
          <internalNodes>
            0 -1 31 -721553445 -582384945 508071647 -304119702
            -873738513 -1431600977 -338960918 -252448798</internalNodes>
          <leafValues>
            -8.2611924409866333e-001 3.6685585975646973e-001</leafValues></_>
        <_>
          <internalNodes>
            0 -1 22 -211943425 -740716065 -509799425 -203497319
            -250797728 994246740 -103550096 -212337851</internalNodes>
          <leafValues>
            -7.1148544549942017e-001 4.2709806561470032e-001</leafValues></_>
        <_>
          <internalNodes>
            0 -1 92 -81799169 -694288109 187832758 -795163874 -108035658
            -596989512 -78923345 -857735201</internalNodes>
          <leafValues>
            -7.7157485485076904e-001 3.9711719751358032e-001</leafValues></_>
        <_>
          <internalNodes>
            0 -1 32 416749623 -15627809 424694014 -44194857 -612127945
            -7763761 -2011461580 -56182270</internalNodes>
          <leafValues>
            -7.0001417398452759e-001 4.7220343351364136e-001</leafValues></_></weakClassifiers></_>
    <!-- stage 7 -->
    <_>
      <maxWeakCount>5</maxWeakCount>
      <stageThreshold>-1.4672009944915771e+000</stageThreshold>
      <weakClassifiers>
        <_>
          <internalNodes>
            0 -1 36 -779485697 -532364598 -2142646135 -208566823
            1892120830 -14122938 -53650561 -75531649</internalNodes>
          <leafValues>
            -7.5422883033752441e-001 2.7727729082107544e-001</leafValues></_>
        <_>
          <internalNodes>
            0 -1 10 -639109121 -604012337 1361547583 -548615762
            -745807364 -1131871857 -1711830552 -2690224</internalNodes>
          <leafValues>
            -8.0067485570907593e-001 3.2957181334495544e-001</leafValues></_>
        <_>
          <internalNodes>
            0 -1 112 -615262221 -70811153 -582395045 -262482954
            -536616469 -215973853 -385618949 -525076114</internalNodes>
          <leafValues>
            -7.8990572690963745e-001 3.6188879609107971e-001</leafValues></_>
        <_>
          <internalNodes>
            0 -1 123 -67108897 -165939313 -654240354 -724151913
            -786516998 -1635319605 -1328490080 -20125260</internalNodes>
          <leafValues>
            -7.2104024887084961e-001 4.2758485674858093e-001</leafValues></_>
        <_>
          <internalNodes>
            0 -1 100 -778596301 -787993341 -250541768 1397772998
            538116248 -485259640 595835832 -1143113205</internalNodes>
          <leafValues>
            -5.8465200662612915e-001 5.2975529432296753e-001</leafValues></_></weakClassifiers></_>
    <!-- stage 8 -->
    <_>
      <maxWeakCount>6</maxWeakCount>
      <stageThreshold>-2.1022779941558838e+000</stageThreshold>
      <weakClassifiers>
        <_>
          <internalNodes>
            0 -1 17 -73402377 1599156760 -1056882465 -6455093 -79207627
            -609648344 -899351553 -136529</internalNodes>
          <leafValues>
            -7.7938890457153320e-001 2.4675324559211731e-001</leafValues></_>
        <_>
          <internalNodes>
            0 -1 1 -800597054 -763166249 -1609734049 -942865897
            -912291105 -926760761 -2012362001 -76288654</internalNodes>
          <leafValues>
            -7.1360993385314941e-001 3.5760912299156189e-001</leafValues></_>
        <_>
          <internalNodes>
            0 -1 121 -134758469 -355506290 562237470 1755116542
            268605845 -1562213973 -605832300 -688062468</internalNodes>
          <leafValues>
            -8.6157387495040894e-001 3.2603228092193604e-001</leafValues></_>
        <_>
          <internalNodes>
            0 -1 65 -648064142 529465403 50859285 1528332837 1779026156
            -1953984382 946505919 996793131</internalNodes>
          <leafValues>
            -6.3911217451095581e-001 4.3786719441413879e-001</leafValues></_>
        <_>
          <internalNodes>
            0 -1 90 -777283089 -620002553 -1593769974 -224198646
            -1844242044 -2097084416 480102804 53736014</internalNodes>
          <leafValues>
            -6.8813508749008179e-001 4.0703982114791870e-001</leafValues></_>
        <_>
          <internalNodes>
            0 -1 116 -105655305 -94695137 285677342 1883822382
            -1189575721 849252495 -1979069834 -252830846</internalNodes>
          <leafValues>
            -7.2040778398513794e-001 3.9193588495254517e-001</leafValues></_></weakClassifiers></_>
    <!-- stage 9 -->
    <_>
      <maxWeakCount>8</maxWeakCount>
      <stageThreshold>-1.7788697481155396e+000</stageThreshold>
      <weakClassifiers>
        <_>
          <internalNodes>
            0 -1 77 -714653696 2030653713 1090519058 2136146311
            -1203064422 956994203 780796347 -1342785</internalNodes>
          <leafValues>
            -7.5528699159622192e-001 2.5513195991516113e-001</leafValues></_>
        <_>
          <internalNodes>
            0 -1 47 -792614764 -737738557 16908366 -1114701301
            -896827238 -340852597 -1987344246 -582771726</internalNodes>
          <leafValues>
            -6.6297644376754761e-001 4.1793578863143921e-001</leafValues></_>
        <_>
          <internalNodes>
            0 -1 89 -1072569692 -82759663 16847128 -217738472
            -2088005240 -1155333885 -1828683078 -726224206</internalNodes>
          <leafValues>
            -7.7415400743484497e-001 3.4062257409095764e-001</leafValues></_>
        <_>
          <internalNodes>
            0 -1 82 -581971266 -744521333 338 -210632686 -1971086710
            67109120 209961102 -1819282466</internalNodes>
          <leafValues>
            -5.1127821207046509e-001 5.3920316696166992e-001</leafValues></_>
        <_>
          <internalNodes>
            0 -1 70 -653143801 2014515283 -1728020143 -753729519
            -2147483646 1107296258 -1988032326 -1280835400</internalNodes>
          <leafValues>
            -6.0342860221862793e-001 5.0653290748596191e-001</leafValues></_>
        <_>
          <internalNodes>
            0 -1 15 -712056353 -1056866047 65539 -720912381 1082139309
            -2139095039 -1064746459 -68990415</internalNodes>
          <leafValues>
            -6.5854203701019287e-001 4.0624746680259705e-001</leafValues></_>
        <_>
          <internalNodes>
            0 -1 75 -994557628 884555316 -1091604483 1019182684
            929569977 -4423714 1580219582 -1088746774</internalNodes>
          <leafValues>
            -5.1867294311523438e-001 5.5393284559249878e-001</leafValues></_>
        <_>
          <internalNodes>
            0 -1 98 -328278846 -608473602 -12681263 1601912639
            -1694527848 -1249940489 49735385 -1686461422</internalNodes>
          <leafValues>
            -4.7204309701919556e-001 5.9019857645034790e-001</leafValues></_></weakClassifiers></_>
    <!-- stage 10 -->
    <_>
      <maxWeakCount>6</maxWeakCount>
      <stageThreshold>-1.5420861244201660e+000</stageThreshold>
      <weakClassifiers>
        <_>
          <internalNodes>
            0 -1 64 -788311950 1562050561 151012189 1609646978
            -1710646374 -1088503127 134896635 -1087391061</internalNodes>
          <leafValues>
            -7.5232499837875366e-001 3.0848860740661621e-001</leafValues></_>
        <_>
          <internalNodes>
            0 -1 49 -595410427 -49479143 285212957 -585430767
            -1425433983 -1146943480 -1710970440 -133264472</internalNodes>
          <leafValues>
            -7.0676118135452271e-001 3.3782792091369629e-001</leafValues></_>
        <_>
          <internalNodes>
            0 -1 40 -791756034 291061785 65631 1562325903 -536114960
            -1836580859 -1991661320 -179047553</internalNodes>
          <leafValues>
            -5.6897145509719849e-001 4.5967173576354980e-001</leafValues></_>
        <_>
          <internalNodes>
            0 -1 87 -218377578 -215771137 -32972 2136211450 763339650
            -80281648 1811382264 -2293767</internalNodes>
          <leafValues>
            -4.9384030699729919e-001 5.2599143981933594e-001</leafValues></_>
        <_>
          <internalNodes>
            0 -1 72 -620506917 151717891 1048722 855775312 -1038382956
            80674817 -1992088900 1431507226</internalNodes>
          <leafValues>
            -6.2323826551437378e-001 4.2467972636222839e-001</leafValues></_>
        <_>
          <internalNodes>
            0 -1 84 -292311748 -1112146195 -131343 -12615816 -1270632
            -276840995 -1342617701 -1413806053</internalNodes>
          <leafValues>
            -4.4542482495307922e-001 5.8184665441513062e-001</leafValues></_></weakClassifiers></_>
    <!-- stage 11 -->
    <_>
      <maxWeakCount>7</maxWeakCount>
      <stageThreshold>-1.6153546571731567e+000</stageThreshold>
      <weakClassifiers>
        <_>
          <internalNodes>
            0 -1 93 -782528289 -560245349 17891592 2000490762
            -1022115432 1052715 285966506 535762859</internalNodes>
          <leafValues>
            -7.2849327325820923e-001 2.2645290195941925e-001</leafValues></_>
        <_>
          <internalNodes>
            0 -1 23 -69209101 -707427885 -2079768104 -778469189
            -98307535 -74866496 -620659843 -132417</internalNodes>
          <leafValues>
            -7.0805007219314575e-001 3.3646196126937866e-001</leafValues></_>
        <_>
          <internalNodes>
            0 -1 62 -610441347 1041326865 -788395947 1616773654
            -892637044 983605426 67742447 858734399</internalNodes>
          <leafValues>
            -7.8229916095733643e-001 3.0153411626815796e-001</leafValues></_>
        <_>
          <internalNodes>
            0 -1 109 -770518366 -551841792 268521553 -180371183
            -611745781 23101448 -671053653 1707854543</internalNodes>
          <leafValues>
            -5.5809122323989868e-001 4.6221816539764404e-001</leafValues></_>
        <_>
          <internalNodes>
            0 -1 108 -1023171174 1397069075 16842882 1746862216
            1376092544 50593792 813892504 1107290510</internalNodes>
          <leafValues>
            -6.4137053489685059e-001 3.8410413265228271e-001</leafValues></_>
        <_>
          <internalNodes>
            0 -1 44 184746251 151191555 524306 -585695099 -2097020149
            -1098186749 436873731 -598349689</internalNodes>
          <leafValues>
            -6.2388014793395996e-001 4.0912219882011414e-001</leafValues></_>
        <_>
          <internalNodes>
            0 -1 34 5694174 -774143953 98455 -464711649 8880308
            -603226111 -1568636692 -12452949</internalNodes>
          <leafValues>
            -5.8659338951110840e-001 4.4436267018318176e-001</leafValues></_></weakClassifiers></_>
    <!-- stage 12 -->
    <_>
      <maxWeakCount>7</maxWeakCount>
      <stageThreshold>-1.4864252805709839e+000</stageThreshold>
      <weakClassifiers>
        <_>
          <internalNodes>
            0 -1 107 -170927093 -249588465 -775824929 -741113377
            -1953783158 -1677032952 -705448194 -7540840</internalNodes>
          <leafValues>
            -6.9165885448455811e-001 2.7085715532302856e-001</leafValues></_>
        <_>
          <internalNodes>
            0 -1 50 -783824450 -577765131 285332946 -1302462066
            -1970628006 1916983347 -1970566438 -201327621</internalNodes>
          <leafValues>
            -5.5242514610290527e-001 4.0135580301284790e-001</leafValues></_>
        <_>
          <internalNodes>
            0 -1 24 -179309605 -216538173 302371091 -2053402529
            1187210320 -233172990 -1161598511 -76952852</internalNodes>
          <leafValues>
            -7.0548856258392334e-001 3.2259118556976318e-001</leafValues></_>
        <_>
          <internalNodes>
            0 -1 94 -16777729 -553649033 -185546566 -34137732 -17236535
            -865018635 1961957818 -603993649</internalNodes>
          <leafValues>
            -3.9056828618049622e-001 6.4923244714736938e-001</leafValues></_>
        <_>
          <internalNodes>
            0 -1 9 -934551041 -791965245 289489497 1397523214
            -1995462408 -2129977147 -1047868708 -729836</internalNodes>
          <leafValues>
            -8.8104677200317383e-001 3.1814622879028320e-001</leafValues></_>
        <_>
          <internalNodes>
            0 -1 78 -618933902 1430458641 1090519123 2110673117
            2017693434 -1165492216 734929471 -1343509841</internalNodes>
          <leafValues>
            -4.8471274971961975e-001 4.9539673328399658e-001</leafValues></_>
        <_>
          <internalNodes>
            0 -1 124 -754457645 1400054035 50923968 -783101035 565484
            1518796809 -117329021 -152241156</internalNodes>
          <leafValues>
            -7.5613570213317871e-001 3.0317807197570801e-001</leafValues></_></weakClassifiers></_>
    <!-- stage 13 -->
    <_>
      <maxWeakCount>7</maxWeakCount>
      <stageThreshold>-1.3960779905319214e+000</stageThreshold>
      <weakClassifiers>
        <_>
          <internalNodes>
            0 -1 96 -785648717 1025065656 285294939 -586720965 285797119
            -1114989687 -1451018817 -38018117</internalNodes>
          <leafValues>
            -6.3636362552642822e-001 3.6189070343971252e-001</leafValues></_>
        <_>
          <internalNodes>
            0 -1 29 -204475909 -576651129 1426688279 -576876327
            -764743117 1027672066 976752659 992989955</internalNodes>
          <leafValues>
            -7.3860806226730347e-001 2.7795296907424927e-001</leafValues></_>
        <_>
          <internalNodes>
            0 -1 6 -2138922358 -778420026 -788446969 -36339434
            -1013217124 -1895071573 -1937061636 1885793144</internalNodes>
          <leafValues>
            -6.6730248928070068e-001 3.1836867332458496e-001</leafValues></_>
        <_>
          <internalNodes>
            0 -1 42 -1073646114 -774896613 16794059 -648232567
            1988180974 1250762931 813906172 1062414627</internalNodes>
          <leafValues>
            -7.5017070770263672e-001 3.1936359405517578e-001</leafValues></_>
        <_>
          <internalNodes>
            0 -1 71 -619994691 -1080885237 16843102 -6090704 142704662
            -1425440629 463700426 -179307574</internalNodes>
          <leafValues>
            -4.7592720389366150e-001 4.5954683423042297e-001</leafValues></_>
        <_>
          <internalNodes>
            0 -1 69 -16777337 -129 -66581 863401851 -1619151612
            -146801315 377283720 -92611202</internalNodes>
          <leafValues>
            -4.6547439694404602e-001 5.1427084207534790e-001</leafValues></_>
        <_>
          <internalNodes>
            0 -1 68 -178793709 -115930365 -1996220621 -1727684219 133392
            -821458432 956386020 -1150448945</internalNodes>
          <leafValues>
            -6.0010105371475220e-001 3.8573345541954041e-001</leafValues></_></weakClassifiers></_>
    <!-- stage 14 -->
    <_>
      <maxWeakCount>8</maxWeakCount>
      <stageThreshold>-1.3584575653076172e+000</stageThreshold>
      <weakClassifiers>
        <_>
          <internalNodes>
            0 -1 85 -564472078 1426669649 822691411 1436506297 135174795
            404267187 -1145439553 -573857349</internalNodes>
          <leafValues>
            -6.8366384506225586e-001 2.3456789553165436e-001</leafValues></_>
        <_>
          <internalNodes>
            0 -1 105 -639769809 -787817697 -2112796321 1396855031
            701137065 -385187448 730836968 -576914471</internalNodes>
          <leafValues>
            -5.5848956108093262e-001 4.2297714948654175e-001</leafValues></_>
        <_>
          <internalNodes>
            0 -1 113 1360920059 -1010329197 553648223 1610767802
            -1878998962 -617766912 1099793151 1358397406</internalNodes>
          <leafValues>
            -8.1627094745635986e-001 2.6168811321258545e-001</leafValues></_>
        <_>
          <internalNodes>
            0 -1 81 -669984268 -78413815 -1022158692 -15720446
            -889013503 -1198835573 -1322743344 -200748058</internalNodes>
          <leafValues>
            -7.7758300304412842e-001 2.9515728354454041e-001</leafValues></_>
        <_>
          <internalNodes>
            0 -1 46 -241765986 -782827367 269156546 302579828 -401898972
            908165379 1084987561 1933568751</internalNodes>
          <leafValues>
            -5.9585350751876831e-001 3.2983684539794922e-001</leafValues></_>
        <_>
          <internalNodes>
            0 -1 16 -762590465 1351780677 268550277 1359454745
            1073943290 671615122 1095461749 2147445268</internalNodes>
          <leafValues>
            -7.9728448390960693e-001 2.9151371121406555e-001</leafValues></_>
        <_>
          <internalNodes>
            0 -1 55 -2147372501 50663937 16845061 84230145 994190138
            -879034368 721521311 -587744361</internalNodes>
          <leafValues>
            -5.4105728864669800e-001 4.0111058950424194e-001</leafValues></_>
        <_>
          <internalNodes>
            0 -1 102 -624296062 487258306 528535 1286422864 -1878552103
            949297352 151396591 -530846165</internalNodes>
          <leafValues>
            -5.5438780784606934e-001 4.3184769153594971e-001</leafValues></_></weakClassifiers></_>
    <!-- stage 15 -->
    <_>
      <maxWeakCount>8</maxWeakCount>
      <stageThreshold>-1.7373279333114624e+000</stageThreshold>
      <weakClassifiers>
        <_>
          <internalNodes>
            0 -1 48 -601888267 -582942591 65555 -553189301 -1467760197
            -1692467029 -1995691633 -572526702</internalNodes>
          <leafValues>
            -6.5890026092529297e-001 2.0278099179267883e-001</leafValues></_>
        <_>
          <internalNodes>
            0 -1 91 -71063073 -557096941 285347890 1474494744 -133390116
            1749024770 1670056122 402333627</internalNodes>
          <leafValues>
            -5.4859495162963867e-001 3.4441629052162170e-001</leafValues></_>
        <_>
          <internalNodes>
            0 -1 119 -235669953 1238847711 537067832 1826525458
            1493410489 1269498506 134470352 -151194628</internalNodes>
          <leafValues>
            -7.6662170886993408e-001 2.5720870494842529e-001</leafValues></_>
        <_>
          <internalNodes>
            0 -1 30 1493299915 -107769839 22057429 1597571331 269090929
            2072182794 134359227 1070565531</internalNodes>
          <leafValues>
            -5.8122909069061279e-001 3.5636970400810242e-001</leafValues></_>
        <_>
          <internalNodes>
            0 -1 103 -581794416 85606401 1327433 1471891073 -1332837664
            998412293 1636507900 -946130502</internalNodes>
          <leafValues>
            -4.7057867050170898e-001 4.5294919610023499e-001</leafValues></_>
        <_>
          <internalNodes>
            0 -1 8 754095 161022471 777 -809950813 559303 -1414919550
            192971301 -804838349</internalNodes>
          <leafValues>
            -8.6863851547241211e-001 2.2255556285381317e-001</leafValues></_>
        <_>
          <internalNodes>
            0 -1 59 -265 2146172669 -318849282 1400104698 2146760150
            1548637277 1324815550 1535114958</internalNodes>
          <leafValues>
            -4.3865618109703064e-001 4.9783676862716675e-001</leafValues></_>
        <_>
          <internalNodes>
            0 -1 104 1568657303 -82018337 2130411449 -143623174
            -2013557539 -1140916387 1627183092 -1275924513</internalNodes>
          <leafValues>
            -4.0260106325149536e-001 5.6709855794906616e-001</leafValues></_></weakClassifiers></_>
    <!-- stage 16 -->
    <_>
      <maxWeakCount>10</maxWeakCount>
      <stageThreshold>-1.5577868223190308e+000</stageThreshold>
      <weakClassifiers>
        <_>
          <internalNodes>
            0 -1 101 -551571149 1595088974 336220569 -678309493
            -1942756466 -74938200 1060740603 -9635172</internalNodes>
          <leafValues>
            -6.5150833129882813e-001 2.6395937800407410e-001</leafValues></_>
        <_>
          <internalNodes>
            0 -1 58 16842883 1376059393 67174481 -589889276 327851
            -569442303 -929357777 809490943</internalNodes>
          <leafValues>
            -7.2243976593017578e-001 2.4647060036659241e-001</leafValues></_>
        <_>
          <internalNodes>
            0 -1 57 -778993162 287523255 131678 -2141977377 -2142507382
            990609413 696538 1937233887</internalNodes>
          <leafValues>
            -5.3169149160385132e-001 3.9691179990768433e-001</leafValues></_>
        <_>
          <internalNodes>
            0 -1 4 402718720 -1039070976 -2130673383 -562036727
            -2012641222 -1962311544 134817952 -25130476</internalNodes>
          <leafValues>
            -6.6964954137802124e-001 3.5819905996322632e-001</leafValues></_>
        <_>
          <internalNodes>
            0 -1 66 1411056052 352387121 -1342177096 814752099
            1363675784 -2130181629 1351256312 -1182035930</internalNodes>
          <leafValues>
            -4.8107621073722839e-001 4.7539582848548889e-001</leafValues></_>
        <_>
          <internalNodes>
            0 -1 0 9380511 -1588817872 -2130640873 -48954870 -905936721
            -1697939413 -920077725 -391184121</internalNodes>
          <leafValues>
            -4.6282917261123657e-001 4.9888756871223450e-001</leafValues></_>
        <_>
          <internalNodes>
            0 -1 114 -18673 1092873535 -1090519058 1374158831
            -1346400465 -897712259 -1 -606535681</internalNodes>
          <leafValues>
            -4.0535247325897217e-001 5.7656955718994141e-001</leafValues></_>
        <_>
          <internalNodes>
            0 -1 79 -1300796380 -1501614178 -1359314985 2066886399
            -8774420 -1912766593 -1267316744 -1304773208</internalNodes>
          <leafValues>
            -4.6385857462882996e-001 5.2094489336013794e-001</leafValues></_>
        <_>
          <internalNodes>
            0 -1 83 277188881 -585288767 16909570 2072871058 -559414376
            269025665 -106823278 1473735486</internalNodes>
          <leafValues>
            -5.5878204107284546e-001 4.2976230382919312e-001</leafValues></_>
        <_>
          <internalNodes>
            0 -1 106 -1261778654 -125271921 16781659 1901236245 12820721
            805830664 -796360256 -366247174</internalNodes>
          <leafValues>
            -4.4219475984573364e-001 5.0551903247833252e-001</leafValues></_></weakClassifiers></_>
    <!-- stage 17 -->
    <_>
      <maxWeakCount>10</maxWeakCount>
      <stageThreshold>-1.7949346303939819e+000</stageThreshold>
      <weakClassifiers>
        <_>
          <internalNodes>
            0 -1 61 -649703204 -1728048756 285245721 355942579
            -1694367336 -1685806934 -1197438229 -1145361729</internalNodes>
          <leafValues>
            -6.4180439710617065e-001 2.5714287161827087e-001</leafValues></_>
        <_>
          <internalNodes>
            0 -1 27 -803998761 -720337663 134291805 -1655635967
            822101047 -402094013 570499135 -338114052</internalNodes>
          <leafValues>
            -7.0036953687667847e-001 2.6273193955421448e-001</leafValues></_>
        <_>
          <internalNodes>
            0 -1 53 -2012401239 -1962737151 66313 -821754879 -2130081621
            -879550425 438844058 -1936725214</internalNodes>
          <leafValues>
            -5.1490455865859985e-001 3.8479954004287720e-001</leafValues></_>
        <_>
          <internalNodes>
            0 -1 18 1531965691 1459830923 180683 -788004449 1620656229
            -1064664948 -930690460 -68859324</internalNodes>
          <leafValues>
            -6.5200877189636230e-001 3.1973400712013245e-001</leafValues></_>
        <_>
          <internalNodes>
            0 -1 74 -2104885168 -1421868694 268517498 890372224
            151388368 -343146484 -401983240 -1205724901</internalNodes>
          <leafValues>
            -4.8442351818084717e-001 4.4064959883689880e-001</leafValues></_>
        <_>
          <internalNodes>
            0 -1 117 1075470575 -246411263 8392973 -545062599
            -2103427067 595787912 268468523 -191872749</internalNodes>
          <leafValues>
            -4.8020362854003906e-001 4.7032511234283447e-001</leafValues></_>
        <_>
          <internalNodes>
            0 -1 122 2034487839 1158152211 16973832 1192382720 537102367
            -939523423 17539248 -86181072</internalNodes>
          <leafValues>
            -8.0774128437042236e-001 2.4620716273784637e-001</leafValues></_>
        <_>
          <internalNodes>
            0 -1 76 -63242558 472710959 1047952274 -604241985 2021047528
            1517768182 981084666 -108289617</internalNodes>
          <leafValues>
            -4.2498293519020081e-001 5.5560147762298584e-001</leafValues></_>
        <_>
          <internalNodes>
            0 -1 73 -1874259474 -619511600 16847258 1348030786
            -1610579775 -1827438591 142719740 -140793826</internalNodes>
          <leafValues>
            -4.7571510076522827e-001 4.7112676501274109e-001</leafValues></_>
        <_>
          <internalNodes>
            0 -1 88 -771778762 -1141309634 -819205 934870907 1081154748
            -1149436067 -361450888 -131337</internalNodes>
          <leafValues>
            -4.4134691357612610e-001 5.0553303956985474e-001</leafValues></_></weakClassifiers></_>
    <!-- stage 18 -->
    <_>
      <maxWeakCount>9</maxWeakCount>
      <stageThreshold>-2.0404233932495117e+000</stageThreshold>
      <weakClassifiers>
        <_>
          <internalNodes>
            0 -1 20 -104082698 -744554107 1082247325 -1052540919
            -1475677321 -653647743 -903114801 -75245461</internalNodes>
          <leafValues>
            -7.3260271549224854e-001 8.2770273089408875e-002</leafValues></_>
        <_>
          <internalNodes>
            0 -1 118 -654192337 -972947309 -469666346 1410273294
            -2138529465 150996993 -1031033409 -173238472</internalNodes>
          <leafValues>
            -6.7324286699295044e-001 2.2140908241271973e-001</leafValues></_>
        <_>
          <internalNodes>
            0 -1 43 -868769455 -587120375 83890444 424214547 -2146776791
            -1953890296 -1951856468 -54482158</internalNodes>
          <leafValues>
            -6.6471922397613525e-001 2.8442841768264771e-001</leafValues></_>
        <_>
          <internalNodes>
            0 -1 45 4671678 -1744719669 16842888 1430261914 139420
            -1999110124 -2088531828 -651440433</internalNodes>
          <leafValues>
            -3.9220628142356873e-001 5.2986162900924683e-001</leafValues></_>
        <_>
          <internalNodes>
            0 -1 52 -117288609 453837071 -2130017457 2005401602
            -896835386 -1157512699 -2012706098 -1480750437</internalNodes>
          <leafValues>
            -4.7051396965980530e-001 4.6263253688812256e-001</leafValues></_>
        <_>
          <internalNodes>
            0 -1 86 -1021590176 1578828544 1627607123 394985538
            134288336 -2142601064 549652766 210447127</internalNodes>
          <leafValues>
            -6.4877992868423462e-001 3.3056446909904480e-001</leafValues></_>
        <_>
          <internalNodes>
            0 -1 5 -1393580039 494661628 1056440319 359120733 -8388643
            -1048586 -720981 -36702721</internalNodes>
          <leafValues>
            -3.1968513131141663e-001 7.8098541498184204e-001</leafValues></_>
        <_>
          <internalNodes>
            0 -1 63 -8464590 -2110096526 2139062075 -638124358
            -1646723595 943652855 2046295805 1795161006</internalNodes>
          <leafValues>
            -4.3782880902290344e-001 5.2702993154525757e-001</leafValues></_>
        <_>
          <internalNodes>
            0 -1 115 1259569498 1091571728 285311234 1409303572
            -1476361344 -1324842968 -1593788416 -1129652224</internalNodes>
          <leafValues>
            -5.6358850002288818e-001 3.9774334430694580e-001</leafValues></_></weakClassifiers></_>
    <!-- stage 19 -->
    <_>
      <maxWeakCount>10</maxWeakCount>
      <stageThreshold>-1.7275513410568237e+000</stageThreshold>
      <weakClassifiers>
        <_>
          <internalNodes>
            0 -1 80 -1374969767 285213707 16843779 521470210 -1591506518
            -1954447357 -2121563973 -100685637</internalNodes>
          <leafValues>
            -6.3371843099594116e-001 3.6011904478073120e-001</leafValues></_>
        <_>
          <internalNodes>
            0 -1 41 -896620818 -234380085 282 53678979 33743060
            -2004572160 -1969116232 -646460529</internalNodes>
          <leafValues>
            -5.5044186115264893e-001 3.6104345321655273e-001</leafValues></_>
        <_>
          <internalNodes>
            0 -1 51 -78125709 831734777 1224737055 -352057727 168119521
            -1165262709 709862127 2134477455</internalNodes>
          <leafValues>
            -4.6069613099098206e-001 4.4562005996704102e-001</leafValues></_>
        <_>
          <internalNodes>
            0 -1 37 -748953089 -108330585 419967455 281170062 1616019572
            -1454767602 1476543040 -279975420</internalNodes>
          <leafValues>
            -6.4601880311965942e-001 3.4405073523521423e-001</leafValues></_>
        <_>
          <internalNodes>
            0 -1 95 -33628687 -638257926 -268648968 892944313 1950125550
            -235095206 -324186950 -71836226</internalNodes>
          <leafValues>
            -3.3652406930923462e-001 6.4187037944793701e-001</leafValues></_>
        <_>
          <internalNodes>
            0 -1 38 -2138013310 -775749478 -2130706291 1436221573
            -1969747747 -1584889853 -1031747172 2122091269</internalNodes>
          <leafValues>
            -6.0293763875961304e-001 3.8701519370079041e-001</leafValues></_>
        <_>
          <internalNodes>
            0 -1 67 1989366611 -711245749 9505807 453060419 1140855603
            -836026236 1233865318 -1157281137</internalNodes>
          <leafValues>
            -5.0491851568222046e-001 4.5509785413742065e-001</leafValues></_>
        <_>
          <internalNodes>
            0 -1 120 -238560357 -1828601597 1090519041 1666962691
            29557895 -2146762622 -1073643444 -261062736</internalNodes>
          <leafValues>
            -7.3168605566024780e-001 2.9361960291862488e-001</leafValues></_>
        <_>
          <internalNodes>
            0 -1 110 -273735762 1579707751 -268500994 -545718273
            1560039148 2083552509 -1879233332 -1925484686</internalNodes>
          <leafValues>
            -4.6539142727851868e-001 5.0080412626266479e-001</leafValues></_>
        <_>
          <internalNodes>
            0 -1 99 -782511998 -753855395 1610828483 1818565147
            142844377 -913735552 1329618803 1234334614</internalNodes>
          <leafValues>
            -5.7283693552017212e-001 3.9702731370925903e-001</leafValues></_></weakClassifiers></_></stages>
  <features>
    <_>
      <rect>
        0 0 3 2</rect></_>
    <_>
      <rect>
        0 0 4 6</rect></_>
    <_>
      <rect>
        0 0 5 5</rect></_>
    <_>
      <rect>
        0 0 5 6</rect></_>
    <_>
      <rect>
        0 0 6 2</rect></_>
    <_>
      <rect>
        0 1 1 1</rect></_>
    <_>
      <rect>
        0 1 3 3</rect></_>
    <_>
      <rect>
        0 3 6 6</rect></_>
    <_>
      <rect>
        0 8 5 5</rect></_>
    <_>
      <rect>
        0 13 1 4</rect></_>
    <_>
      <rect>
        0 15 1 3</rect></_>
    <_>
      <rect>
        0 15 2 7</rect></_>
    <_>
      <rect>
        0 15 3 8</rect></_>
    <_>
      <rect>
        0 15 6 6</rect></_>
    <_>
      <rect>
        0 18 1 2</rect></_>
    <_>
      <rect>
        0 18 1 7</rect></_>
    <_>
      <rect>
        0 19 2 5</rect></_>
    <_>
      <rect>
        0 25 4 4</rect></_>
    <_>
      <rect>
        0 26 1 4</rect></_>
    <_>
      <rect>
        0 27 2 4</rect></_>
    <_>
      <rect>
        0 27 3 3</rect></_>
    <_>
      <rect>
        0 27 6 4</rect></_>
    <_>
      <rect>
        0 29 1 2</rect></_>
    <_>
      <rect>
        0 29 3 3</rect></_>
    <_>
      <rect>
        0 33 2 2</rect></_>
    <_>
      <rect>
        0 33 4 2</rect></_>
    <_>
      <rect>
        0 34 3 2</rect></_>
    <_>
      <rect>
        0 34 5 2</rect></_>
    <_>
      <rect>
        0 35 4 1</rect></_>
    <_>
      <rect>
        0 36 1 1</rect></_>
    <_>
      <rect>
        0 37 5 1</rect></_>
    <_>
      <rect>
        1 0 5 7</rect></_>
    <_>
      <rect>
        1 0 6 2</rect></_>
    <_>
      <rect>
        1 3 6 7</rect></_>
    <_>
      <rect>
        1 5 2 6</rect></_>
    <_>
      <rect>
        1 5 6 8</rect></_>
    <_>
      <rect>
        1 16 3 8</rect></_>
    <_>
      <rect>
        1 29 1 2</rect></_>
    <_>
      <rect>
        2 0 2 3</rect></_>
    <_>
      <rect>
        2 4 6 6</rect></_>
    <_>
      <rect>
        2 5 2 5</rect></_>
    <_>
      <rect>
        2 8 2 5</rect></_>
    <_>
      <rect>
        2 16 4 8</rect></_>
    <_>
      <rect>
        3 0 5 4</rect></_>
    <_>
      <rect>
        3 4 5 8</rect></_>
    <_>
      <rect>
        3 7 2 5</rect></_>
    <_>
      <rect>
        3 8 2 2</rect></_>
    <_>
      <rect>
        4 0 3 6</rect></_>
    <_>
      <rect>
        4 0 4 5</rect></_>
    <_>
      <rect>
        4 0 5 4</rect></_>
    <_>
      <rect>
        4 10 2 1</rect></_>
    <_>
      <rect>
        4 25 2 4</rect></_>
    <_>
      <rect>
        4 25 5 5</rect></_>
    <_>
      <rect>
        5 0 4 6</rect></_>
    <_>
      <rect>
        5 0 5 8</rect></_>
    <_>
      <rect>
        5 1 5 7</rect></_>
    <_>
      <rect>
        5 5 5 3</rect></_>
    <_>
      <rect>
        5 7 2 3</rect></_>
    <_>
      <rect>
        5 9 5 8</rect></_>
    <_>
      <rect>
        5 11 2 3</rect></_>
    <_>
      <rect>
        5 12 5 7</rect></_>
    <_>
      <rect>
        5 20 1 2</rect></_>
    <_>
      <rect>
        5 22 4 5</rect></_>
    <_>
      <rect>
        5 23 3 3</rect></_>
    <_>
      <rect>
        5 24 2 4</rect></_>
    <_>
      <rect>
        5 24 3 5</rect></_>
    <_>
      <rect>
        5 26 1 1</rect></_>
    <_>
      <rect>
        5 27 4 4</rect></_>
    <_>
      <rect>
        5 30 3 3</rect></_>
    <_>
      <rect>
        5 34 1 1</rect></_>
    <_>
      <rect>
        5 35 5 1</rect></_>
    <_>
      <rect>
        6 4 3 4</rect></_>
    <_>
      <rect>
        6 8 2 4</rect></_>
    <_>
      <rect>
        6 9 2 1</rect></_>
    <_>
      <rect>
        6 22 1 1</rect></_>
    <_>
      <rect>
        6 22 1 2</rect></_>
    <_>
      <rect>
        6 24 2 2</rect></_>
    <_>
      <rect>
        6 25 2 3</rect></_>
    <_>
      <rect>
        6 25 2 4</rect></_>
    <_>
      <rect>
        6 26 1 1</rect></_>
    <_>
      <rect>
        7 1 4 6</rect></_>
    <_>
      <rect>
        7 3 4 2</rect></_>
    <_>
      <rect>
        7 8 2 3</rect></_>
    <_>
      <rect>
        7 12 2 3</rect></_>
    <_>
      <rect>
        7 19 1 3</rect></_>
    <_>
      <rect>
        7 24 2 3</rect></_>
    <_>
      <rect>
        7 27 2 3</rect></_>
    <_>
      <rect>
        7 31 3 3</rect></_>
    <_>
      <rect>
        7 32 2 2</rect></_>
    <_>
      <rect>
        8 0 4 5</rect></_>
    <_>
      <rect>
        8 7 2 4</rect></_>
    <_>
      <rect>
        8 11 2 3</rect></_>
    <_>
      <rect>
        8 11 4 5</rect></_>
    <_>
      <rect>
        8 12 2 3</rect></_>
    <_>
      <rect>
        8 12 2 4</rect></_>
    <_>
      <rect>
        8 14 1 3</rect></_>
    <_>
      <rect>
        8 23 2 4</rect></_>
    <_>
      <rect>
        8 24 4 4</rect></_>
    <_>
      <rect>
        8 25 1 2</rect></_>
    <_>
      <rect>
        8 27 2 3</rect></_>
    <_>
      <rect>
        8 30 3 3</rect></_>
    <_>
      <rect>
        8 34 3 2</rect></_>
    <_>
      <rect>
        9 22 2 4</rect></_>
    <_>
      <rect>
        9 25 1 3</rect></_>
    <_>
      <rect>
        9 31 2 2</rect></_>
    <_>
      <rect>
        9 31 3 3</rect></_>
    <_>
      <rect>
        9 34 1 1</rect></_>
    <_>
      <rect>
        9 34 3 2</rect></_>
    <_>
      <rect>
        10 6 2 5</rect></_>
    <_>
      <rect>
        10 37 3 1</rect></_>
    <_>
      <rect>
        11 11 1 6</rect></_>
    <_>
      <rect>
        11 17 3 5</rect></_>
    <_>
      <rect>
        11 19 3 4</rect></_>
    <_>
      <rect>
        11 21 3 5</rect></_>
    <_>
      <rect>
        11 31 3 3</rect></_>
    <_>
      <rect>
        12 28 1 1</rect></_>
    <_>
      <rect>
        13 21 2 1</rect></_>
    <_>
      <rect>
        14 0 2 2</rect></_>
    <_>
      <rect>
        14 35 2 1</rect></_>
    <_>
      <rect>
        16 9 1 3</rect></_>
    <_>
      <rect>
        16 20 1 5</rect></_>
    <_>
      <rect>
        17 8 1 3</rect></_>
    <_>
      <rect>
        17 9 1 4</rect></_>
    <_>
      <rect>
        17 14 1 2</rect></_>
    <_>
      <rect>
        17 15 1 4</rect></_>
    <_>
      <rect>
        17 17 1 5</rect></_>
    <_>
      <rect>
        17 21 1 3</rect></_></features></cascade>
</opencv_storage>
