<?xml version="1.0"?>
<opencv_storage>
<cascade>
  <stageType>BOOST</stageType>
  <featureType>LBP</featureType>
  <height>24</height>
  <width>24</width>
  <stageParams>
    <boostType>GAB</boostType>
    <minHitRate>9.9900001287460327e-001</minHitRate>
    <maxFalseAlarm>5.0000000000000000e-001</maxFalseAlarm>
    <weightTrimRate>9.4999999999999996e-001</weightTrimRate>
    <maxDepth>1</maxDepth>
    <maxWeakCount>100</maxWeakCount></stageParams>
  <featureParams>
    <maxCatCount>256</maxCatCount>
    <featSize>1</featSize></featureParams>
  <stageNum>15</stageNum>
  <stages>
    <!-- stage 0 -->
    <_>
      <maxWeakCount>3</maxWeakCount>
      <stageThreshold>-1.2405567169189453e+000</stageThreshold>
      <weakClassifiers>
        <_>
          <internalNodes>
            0 -1 34 -78383911 -787808191 -519978891 420601875
            -2013083393 -1979580264 8437951 958124703</internalNodes>
          <leafValues>
            -9.4807440042495728e-001 6.8203884363174438e-001</leafValues></_>
        <_>
          <internalNodes>
            0 -1 71 -178520097 -134201199 -2147368737 -1992323071
            -377452390 -1988067191 -1060462101 144431311</internalNodes>
          <leafValues>
            -9.1771280765533447e-001 7.0694881677627563e-001</leafValues></_>
        <_>
          <internalNodes>
            0 -1 4 -16262689 -788180736 -2130636751 -45920167
            -2012696408 -2013200384 -1878996836 88328352</internalNodes>
          <leafValues>
            -9.2740648984909058e-001 6.2523049116134644e-001</leafValues></_></weakClassifiers></_>
    <!-- stage 1 -->
    <_>
      <maxWeakCount>4</maxWeakCount>
      <stageThreshold>-1.8218313455581665e+000</stageThreshold>
      <weakClassifiers>
        <_>
          <internalNodes>
            0 -1 30 -2097153 -134360679 -611198497 -573468604 -661853473
            -92550976 -124585505 -634662661</internalNodes>
          <leafValues>
            -8.5637640953063965e-001 6.2640452384948730e-001</leafValues></_>
        <_>
          <internalNodes>
            0 -1 11 -769 -4017744 -788147393 -147607279 -91760452
            -115769344 -1063154435 790609211</internalNodes>
          <leafValues>
            -7.9558420181274414e-001 6.1228603124618530e-001</leafValues></_>
        <_>
          <internalNodes>
            0 -1 43 -2360834 433804370 -125707777 330519451 -666304834
            -1969823590 -645866241 469499903</internalNodes>
          <leafValues>
            -8.4211909770965576e-001 6.0619175434112549e-001</leafValues></_>
        <_>
          <internalNodes>
            0 -1 40 -35848707 -671910407 -573514307 1102289171
            -827668226 -819738491 -931095073 -617099457</internalNodes>
          <leafValues>
            -7.3562192916870117e-001 7.0906442403793335e-001</leafValues></_></weakClassifiers></_>
    <!-- stage 2 -->
    <_>
      <maxWeakCount>5</maxWeakCount>
      <stageThreshold>-1.3525495529174805e+000</stageThreshold>
      <weakClassifiers>
        <_>
          <internalNodes>
            0 -1 44 -1 -23074891 -141077697 -570434123 -342164545
            -24196961 -67569153 -626271745</internalNodes>
          <leafValues>
            -8.4993642568588257e-001 4.8453608155250549e-001</leafValues></_>
        <_>
          <internalNodes>
            0 -1 54 -67447301 -71707759 -644129315 -74222109 -1023489793
            -71611973 -1462712065 -1153704449</internalNodes>
          <leafValues>
            -7.4943912029266357e-001 6.2535232305526733e-001</leafValues></_>
        <_>
          <internalNodes>
            0 -1 75 -257 -81825409 -1056442497 -1343962146 -135268449
            -4267505 -3145985 -1431773698</internalNodes>
          <leafValues>
            -8.9520478248596191e-001 5.1830804347991943e-001</leafValues></_>
        <_>
          <internalNodes>
            0 -1 50 -12591624 -1248798480 -551453187 -37890599 -88422181
            -1079139429 -123151105 -1122634921</internalNodes>
          <leafValues>
            -7.8934234380722046e-001 5.1800692081451416e-001</leafValues></_>
        <_>
          <internalNodes>
            0 -1 7 -1 -537405089 -604776449 -67118217 -1062414084
            -846296885 1424546008 -16956931</internalNodes>
          <leafValues>
            -7.0514243841171265e-001 6.2402391433715820e-001</leafValues></_></weakClassifiers></_>
    <!-- stage 3 -->
    <_>
      <maxWeakCount>5</maxWeakCount>
      <stageThreshold>-1.4213442802429199e+000</stageThreshold>
      <weakClassifiers>
        <_>
          <internalNodes>
            0 -1 0 -1 -136316421 -782249189 -2887173 -605225761
            -280323885 -107550497 -172707</internalNodes>
          <leafValues>
            -8.6570525169372559e-001 3.1877729296684265e-001</leafValues></_>
        <_>
          <internalNodes>
            0 -1 32 -67108865 -2819 -711730177 -589964199 -6623233
            -20389387 -70059041 -612633861</internalNodes>
          <leafValues>
            -7.0677053928375244e-001 5.8826494216918945e-001</leafValues></_>
        <_>
          <internalNodes>
            0 -1 63 -67109125 -537986761 -9840675 1232590335 -67961666
            -828444418 -83624001 1270597119</internalNodes>
          <leafValues>
            -7.4996495246887207e-001 5.4763942956924438e-001</leafValues></_>
        <_>
          <internalNodes>
            0 -1 18 2135514999 2013091796 -1147668617 1071627126
            377388543 -4071494 1930788349 -1082838189</internalNodes>
          <leafValues>
            -7.5211077928543091e-001 5.2084773778915405e-001</leafValues></_>
        <_>
          <internalNodes>
            0 -1 29 -276826640 -46149583 -551552553 -1656779465 -5510927
            -9702085 -858149633 255827391</internalNodes>
          <leafValues>
            -8.0423384904861450e-001 4.7798937559127808e-001</leafValues></_></weakClassifiers></_>
    <!-- stage 4 -->
    <_>
      <maxWeakCount>5</maxWeakCount>
      <stageThreshold>-1.4631125926971436e+000</stageThreshold>
      <weakClassifiers>
        <_>
          <internalNodes>
            0 -1 37 -35719681 -35849871 -9306657 1945293075 -84748065
            -496725 -30285825 -82059329</internalNodes>
          <leafValues>
            -8.2760119438171387e-001 3.2458233833312988e-001</leafValues></_>
        <_>
          <internalNodes>
            0 -1 73 -6291457 -723193400 -105778213 -1595092801 -87295238
            -118779154 -89408513 -291844898</internalNodes>
          <leafValues>
            -7.5177854299545288e-001 4.7479158639907837e-001</leafValues></_>
        <_>
          <internalNodes>
            0 -1 49 -2305 -102765059 -1348932645 -1864511121 -220545282
            -656870216 -202702849 -744755973</internalNodes>
          <leafValues>
            -6.3936752080917358e-001 5.6166189908981323e-001</leafValues></_>
        <_>
          <internalNodes>
            0 -1 19 434074104 -1084256221 -707701259 -1088422441
            2116907966 -9749729 1879130331 2004316159</internalNodes>
          <leafValues>
            -7.9086863994598389e-001 4.7149819135665894e-001</leafValues></_>
        <_>
          <internalNodes>
            0 -1 22 -811633454 -1931479344 -1383617259 -1975941
            -154156836 -17096438 2015488249 2100789111</internalNodes>
          <leafValues>
            -8.0670964717864990e-001 4.4605410099029541e-001</leafValues></_></weakClassifiers></_>
    <!-- stage 5 -->
    <_>
      <maxWeakCount>5</maxWeakCount>
      <stageThreshold>-1.3600823879241943e+000</stageThreshold>
      <weakClassifiers>
        <_>
          <internalNodes>
            0 -1 8 -134225953 -6299659 1088155983 -285213955 -873468455
            -266016 -540020741 -285217797</internalNodes>
          <leafValues>
            -7.6143139600753784e-001 4.6129032969474792e-001</leafValues></_>
        <_>
          <internalNodes>
            0 -1 1 -8785409 -2117409 -583544145 -2100258 -1278043138
            -209138989 -1480165420 -7078396</internalNodes>
          <leafValues>
            -6.5675294399261475e-001 5.1684099435806274e-001</leafValues></_>
        <_>
          <internalNodes>
            0 -1 5 -2097153 -2101699 -1312056353 -28339 -340006913
            -83917916 -342885377 269541852</internalNodes>
          <leafValues>
            -9.0578001737594604e-001 3.5976734757423401e-001</leafValues></_>
        <_>
          <internalNodes>
            0 -1 41 -597765639 -581102799 -511651475 -6038703 -635503425
            -29684821 -1740056385 -1086652433</internalNodes>
          <leafValues>
            -6.5721070766448975e-001 5.3460001945495605e-001</leafValues></_>
        <_>
          <internalNodes>
            0 -1 52 -590945872 -710502649 -644722371 396038707
            -1028734491 923459736 -989871681 -450636481</internalNodes>
          <leafValues>
            -7.4431204795837402e-001 4.8358514904975891e-001</leafValues></_></weakClassifiers></_>
    <!-- stage 6 -->
    <_>
      <maxWeakCount>6</maxWeakCount>
      <stageThreshold>-1.9304730892181396e+000</stageThreshold>
      <weakClassifiers>
        <_>
          <internalNodes>
            0 -1 36 -1 -525063 -702029225 -534308 -207881217 -540033360
            -58000722 -88081921</internalNodes>
          <leafValues>
            -8.0060166120529175e-001 2.8960394859313965e-001</leafValues></_>
        <_>
          <internalNodes>
            0 -1 38 -538972193 -51482283 -1651044481 1408947545
            -339546113 -856105325 -40243217 -641990657</internalNodes>
          <leafValues>
            -6.7583453655242920e-001 4.6728557348251343e-001</leafValues></_>
        <_>
          <internalNodes>
            0 -1 2 -536879105 2144851455 -1413877249 -33564289
            -160073729 1735503787 1942386548 -136976398</internalNodes>
          <leafValues>
            -6.6798305511474609e-001 4.8687353730201721e-001</leafValues></_>
        <_>
          <internalNodes>
            0 -1 51 -590881359 -1245832777 -1664489987 457128763
            -646461995 -1224718321 -859126533 -708847317</internalNodes>
          <leafValues>
            -6.6070485115051270e-001 5.0332254171371460e-001</leafValues></_>
        <_>
          <internalNodes>
            0 -1 55 -93984845 -556613369 -642392141 -1635581458
            -291526473 955490495 -1060452875 -251674436</internalNodes>
          <leafValues>
            -6.0044473409652710e-001 5.7362920045852661e-001</leafValues></_>
        <_>
          <internalNodes>
            0 -1 53 -59706120 2088726962 -1442720371 1374934851
            -781521673 -1947682625 -254223169 454814575</internalNodes>
          <leafValues>
            -8.5383480787277222e-001 3.7657913565635681e-001</leafValues></_></weakClassifiers></_>
    <!-- stage 7 -->
    <_>
      <maxWeakCount>5</maxWeakCount>
      <stageThreshold>-1.5485930442810059e+000</stageThreshold>
      <weakClassifiers>
        <_>
          <internalNodes>
            0 -1 57 1987245051 2008626171 -33522183 1939035539 -21370369
            -4508257 -175377953 -7634945</internalNodes>
          <leafValues>
            -7.9938942193984985e-001 2.4228028953075409e-001</leafValues></_>
        <_>
          <internalNodes>
            0 -1 46 -2097668 -73574000 -1334806787 -166994639 -549922373
            -1147407446 -124061185 -1423975425</internalNodes>
          <leafValues>
            -7.4651926755905151e-001 3.8565173745155334e-001</leafValues></_>
        <_>
          <internalNodes>
            0 -1 20 1063193937 -704685442 -781823527 -201406594
            -337421092 -67386679 -1236214786 -1079280674</internalNodes>
          <leafValues>
            -6.5708816051483154e-001 4.8216432332992554e-001</leafValues></_>
        <_>
          <internalNodes>
            0 -1 70 -8390657 -654396425 1493260447 -1610960417
            -241435717 -592397380 -5063777 8344831</internalNodes>
          <leafValues>
            -6.9993221759796143e-001 4.6171602606773376e-001</leafValues></_>
        <_>
          <internalNodes>
            0 -1 9 -36708481 -544114885 1795622151 -1097337385
            -552751105 -34500204 -84153349 1345516009</internalNodes>
          <leafValues>
            -8.1950467824935913e-001 4.0860810875892639e-001</leafValues></_></weakClassifiers></_>
    <!-- stage 8 -->
    <_>
      <maxWeakCount>5</maxWeakCount>
      <stageThreshold>-1.3231943845748901e+000</stageThreshold>
      <weakClassifiers>
        <_>
          <internalNodes>
            0 -1 61 -220794127 -675335517 356913653 -209485481 -92616193
            -39903075 -321141253 -1078199413</internalNodes>
          <leafValues>
            -7.9275053739547729e-001 2.9113924503326416e-001</leafValues></_>
        <_>
          <internalNodes>
            0 -1 59 -648222755 -575743222 722602335 -674041840
            -589643619 -657792866 -2138537795 -13631649</internalNodes>
          <leafValues>
            -7.0756798982620239e-001 4.6557557582855225e-001</leafValues></_>
        <_>
          <internalNodes>
            0 -1 42 -782828784 -707316813 -1077849633 1603836547
            -658341159 -435483871 -1005435413 -552891493</internalNodes>
          <leafValues>
            -6.6019684076309204e-001 5.0258499383926392e-001</leafValues></_>
        <_>
          <internalNodes>
            0 -1 15 -1945597185 -1785130024 -1459399201 -35708452
            277787646 -7823180 422334705 -707612</internalNodes>
          <leafValues>
            -7.2920995950698853e-001 4.3281716108322144e-001</leafValues></_>
        <_>
          <internalNodes>
            0 -1 31 1369439580 2064087525 822285849 -591161239
            -607367671 -18697988 857243150 -62926454</internalNodes>
          <leafValues>
            -6.7142391204833984e-001 4.8264119029045105e-001</leafValues></_></weakClassifiers></_>
    <!-- stage 9 -->
    <_>
      <maxWeakCount>6</maxWeakCount>
      <stageThreshold>-2.2611227035522461e+000</stageThreshold>
      <weakClassifiers>
        <_>
          <internalNodes>
            0 -1 48 -1 -1481637889 -687212033 -1815357313 -221578386
            -69473125 -1143866417 -8389889</internalNodes>
          <leafValues>
            -7.4412953853607178e-001 3.1428572535514832e-001</leafValues></_>
        <_>
          <internalNodes>
            0 -1 3 -101198849 -572540417 545325339 -738218145 -143817473
            -1413963620 -640871915 639760177</internalNodes>
          <leafValues>
            -9.5714432001113892e-001 1.9924592971801758e-001</leafValues></_>
        <_>
          <internalNodes>
            0 -1 77 -1897999912 -1248588903 -1593398881 1024786454
            -290456980 -106302469 -1148462118 -2004180770</internalNodes>
          <leafValues>
            -7.8280925750732422e-001 3.1287330389022827e-001</leafValues></_>
        <_>
          <internalNodes>
            0 -1 47 -679674376 -539311725 366584157 2064844083
            -1831433729 990831419 -324871937 -1691624577</internalNodes>
          <leafValues>
            -6.1563628911972046e-001 4.9984940886497498e-001</leafValues></_>
        <_>
          <internalNodes>
            0 -1 58 1406664446 1943621886 -804718145 871613432
            1880333502 535773583 -863895315 2065310447</internalNodes>
          <leafValues>
            -6.6790759563446045e-001 4.6387872099876404e-001</leafValues></_>
        <_>
          <internalNodes>
            0 -1 78 -529346884 -1823315818 1929711699 277141739
            -74072343 -1429634928 -1656096261 -2001716839</internalNodes>
          <leafValues>
            -7.6537156105041504e-001 3.5374161601066589e-001</leafValues></_></weakClassifiers></_>
    <!-- stage 10 -->
    <_>
      <maxWeakCount>6</maxWeakCount>
      <stageThreshold>-1.7596137523651123e+000</stageThreshold>
      <weakClassifiers>
        <_>
          <internalNodes>
            0 -1 12 -689963057 -2108043 -985007989 -1295515665
            -2066755753 -107155228 -22 -21</internalNodes>
          <leafValues>
            -7.4959349632263184e-001 3.1851851940155029e-001</leafValues></_>
        <_>
          <internalNodes>
            0 -1 56 -8669261 -138693837 -35467 -80496651 -16797761
            -4229205 -184551939 -37748737</internalNodes>
          <leafValues>
            -5.1317375898361206e-001 6.2240278720855713e-001</leafValues></_>
        <_>
          <internalNodes>
            0 -1 33 -67143428 1940634032 2044054973 2080112125 -29361775
            1609505435 -1476232001 993752055</internalNodes>
          <leafValues>
            -8.5912412405014038e-001 3.5132828354835510e-001</leafValues></_>
        <_>
          <internalNodes>
            0 -1 35 -136970499 -555944451 -89716769 -780956303 -79235338
            -87389877 -708124449 -618539521</internalNodes>
          <leafValues>
            -5.8998674154281616e-001 4.6960583329200745e-001</leafValues></_>
        <_>
          <internalNodes>
            0 -1 76 -205062209 -78597514 1079870145 696808934 -213274421
            -218070941 -1520856081 -1414882818</internalNodes>
          <leafValues>
            -7.0969253778457642e-001 4.1000634431838989e-001</leafValues></_>
        <_>
          <internalNodes>
            0 -1 62 -590029648 -16330737 -1803323041 -1080966893
            -353645347 -599329815 -995390307 -823414413</internalNodes>
          <leafValues>
            -6.0808807611465454e-001 4.7911068797111511e-001</leafValues></_></weakClassifiers></_>
    <!-- stage 11 -->
    <_>
      <maxWeakCount>6</maxWeakCount>
      <stageThreshold>-1.8744093179702759e+000</stageThreshold>
      <weakClassifiers>
        <_>
          <internalNodes>
            0 -1 27 -8353 -1073875459 -375914705 -1694761489 -206635041
            -254086667 -269488273 -637535265</internalNodes>
          <leafValues>
            -7.8928411006927490e-001 1.3566739857196808e-001</leafValues></_>
        <_>
          <internalNodes>
            0 -1 68 -153164112 -155238989 -666207139 1498550583
            -891294533 -1128329211 1087294975 -1154744359</internalNodes>
          <leafValues>
            -7.0222949981689453e-001 3.3676779270172119e-001</leafValues></_>
        <_>
          <internalNodes>
            0 -1 14 -4000778 -539173034 1085002153 -168889901
            -1156253188 -100676114 2048225727 -403737089</internalNodes>
          <leafValues>
            -5.7354956865310669e-001 4.8953428864479065e-001</leafValues></_>
        <_>
          <internalNodes>
            0 -1 79 44994751 286697180 -245804547 1063164124 -1265895301
            -1144680294 -1952711687 -1879060227</internalNodes>
          <leafValues>
            -5.7574856281280518e-001 4.8109769821166992e-001</leafValues></_>
        <_>
          <internalNodes>
            0 -1 13 -147457093 -744233193 1074184283 -481841971
            -678429970 -662666485 811357342 -990558724</internalNodes>
          <leafValues>
            -6.4610123634338379e-001 4.6139258146286011e-001</leafValues></_>
        <_>
          <internalNodes>
            0 -1 66 -168508236 -324278853 -377382513 1305048962
            -1962357538 1270860467 -124200787 2005662683</internalNodes>
          <leafValues>
            -7.5183641910552979e-001 3.9161804318428040e-001</leafValues></_></weakClassifiers></_>
    <!-- stage 12 -->
    <_>
      <maxWeakCount>6</maxWeakCount>
      <stageThreshold>-1.3587654829025269e+000</stageThreshold>
      <weakClassifiers>
        <_>
          <internalNodes>
            0 -1 26 -570434561 -16847944 167908155 -151067750 -790717969
            -822098702 -622084165 -12589313</internalNodes>
          <leafValues>
            -7.4498325586318970e-001 2.0592193305492401e-001</leafValues></_>
        <_>
          <internalNodes>
            0 -1 28 -100142081 2023331987 -1671858701 852939517
            1912488191 1056377255 -796829697 1895786507</internalNodes>
          <leafValues>
            -8.0387187004089355e-001 2.5606504082679749e-001</leafValues></_>
        <_>
          <internalNodes>
            0 -1 25 -15074834 -141003504 -794450980 1938904351 -71783474
            -105921846 -795549012 -658940884</internalNodes>
          <leafValues>
            -6.5736317634582520e-001 3.9295768737792969e-001</leafValues></_>
        <_>
          <internalNodes>
            0 -1 17 -40018573 2133679378 -921442853 1073559618
            -756801032 -110960132 398807517 -8439536</internalNodes>
          <leafValues>
            -7.2376894950866699e-001 3.7987452745437622e-001</leafValues></_>
        <_>
          <internalNodes>
            0 -1 23 -39854928 417039039 -1618996132 1071373019 -73416945
            1060731163 -725232452 1680339003</internalNodes>
          <leafValues>
            -8.9696604013442993e-001 2.9708108305931091e-001</leafValues></_>
        <_>
          <internalNodes>
            0 -1 10 -642779397 -91753801 -1030938241 -126626837
            -988697809 -2134186484 -376675944 -975895076</internalNodes>
          <leafValues>
            -7.2708541154861450e-001 3.6285099387168884e-001</leafValues></_></weakClassifiers></_>
    <!-- stage 13 -->
    <_>
      <maxWeakCount>6</maxWeakCount>
      <stageThreshold>-1.9200747013092041e+000</stageThreshold>
      <weakClassifiers>
        <_>
          <internalNodes>
            0 -1 21 -914474017 -153445990 683147547 -285458513
            -1930498081 -85987312 -370427685 -276829217</internalNodes>
          <leafValues>
            -7.7235060930252075e-001 1.6864608228206635e-001</leafValues></_>
        <_>
          <internalNodes>
            0 -1 65 -614478439 -39846471 -788473475 -855915173
            -741945637 -1894054933 -252667649 -1086324865</internalNodes>
          <leafValues>
            -6.1772358417510986e-001 3.7132075428962708e-001</leafValues></_>
        <_>
          <internalNodes>
            0 -1 6 -134220801 -646733813 1089671434 -182988545
            -341275734 -1448378221 -371407922 -84878124</internalNodes>
          <leafValues>
            -7.6255565881729126e-001 3.1012934446334839e-001</leafValues></_>
        <_>
          <internalNodes>
            0 -1 67 -207814785 -875208213 -1851381699 -275135976
            1942276792 -846421842 -338115396 -878748293</internalNodes>
          <leafValues>
            -4.9159523844718933e-001 5.2159696817398071e-001</leafValues></_>
        <_>
          <internalNodes>
            0 -1 60 -700255568 -606104639 -679426619 897791314
            -285505857 -341269814 -389510657 -1323213713</internalNodes>
          <leafValues>
            -6.0862195491790771e-001 4.7069332003593445e-001</leafValues></_>
        <_>
          <internalNodes>
            0 -1 24 -211812492 -1672120883 -43790549 -1862937425
            1259245455 -119757587 1072492511 1366485226</internalNodes>
          <leafValues>
            -8.1922793388366699e-001 3.2724544405937195e-001</leafValues></_></weakClassifiers></_>
    <!-- stage 14 -->
    <_>
      <maxWeakCount>7</maxWeakCount>
      <stageThreshold>-1.6715384721755981e+000</stageThreshold>
      <weakClassifiers>
        <_>
          <internalNodes>
            0 -1 45 -53428769 -778400621 -585897569 -1623542925
            -107292417 -4283973 -33882881 -5242881</internalNodes>
          <leafValues>
            -7.7906459569931030e-001 1.3483145833015442e-001</leafValues></_>
        <_>
          <internalNodes>
            0 -1 72 -25817550 -93438881 -603532517 -46484577 -610391118
            -32075760 -335643242 -81627496</internalNodes>
          <leafValues>
            -6.6393858194351196e-001 3.2919383049011230e-001</leafValues></_>
        <_>
          <internalNodes>
            0 -1 64 1405418673 512630159 -1949458979 1068644658
            -195720779 835132623 -850489857 -411111365</internalNodes>
          <leafValues>
            -6.1187398433685303e-001 4.1695848107337952e-001</leafValues></_>
        <_>
          <internalNodes>
            0 -1 74 -8389633 -798986212 -785711013 -1446714722
            -279465086 -223624366 -67640389 -1398124609</internalNodes>
          <leafValues>
            -6.8402367830276489e-001 3.6886557936668396e-001</leafValues></_>
        <_>
          <internalNodes>
            0 -1 69 -1360746544 -425844709 -805015329 1905524812
            -48121708 -1583020918 -343821380 -1915286352</internalNodes>
          <leafValues>
            -6.5027058124542236e-001 4.0516167879104614e-001</leafValues></_>
        <_>
          <internalNodes>
            0 -1 16 -1214710370 1291556823 1686915143 -855684363
            429694975 -708198150 1364021663 -690447</internalNodes>
          <leafValues>
            -5.9900385141372681e-001 4.2178094387054443e-001</leafValues></_>
        <_>
          <internalNodes>
            0 -1 39 1364702053 -28100445 -1459328753 1358529983
            607166813 -798612169 -326508059 1261165567</internalNodes>
          <leafValues>
            -7.5271266698837280e-001 3.7129628658294678e-001</leafValues></_></weakClassifiers></_></stages>
  <features>
    <_>
      <rect>
        0 0 1 3</rect></_>
    <_>
      <rect>
        0 0 2 1</rect></_>
    <_>
      <rect>
        0 0 3 1</rect></_>
    <_>
      <rect>
        0 0 4 8</rect></_>
    <_>
      <rect>
        0 0 6 4</rect></_>
    <_>
      <rect>
        0 0 8 5</rect></_>
    <_>
      <rect>
        0 1 1 4</rect></_>
    <_>
      <rect>
        0 2 2 5</rect></_>
    <_>
      <rect>
        0 4 6 6</rect></_>
    <_>
      <rect>
        0 4 8 6</rect></_>
    <_>
      <rect>
        0 6 2 4</rect></_>
    <_>
      <rect>
        0 6 7 4</rect></_>
    <_>
      <rect>
        0 6 7 6</rect></_>
    <_>
      <rect>
        0 7 2 4</rect></_>
    <_>
      <rect>
        0 8 4 4</rect></_>
    <_>
      <rect>
        0 11 3 2</rect></_>
    <_>
      <rect>
        0 12 4 3</rect></_>
    <_>
      <rect>
        0 15 2 3</rect></_>
    <_>
      <rect>
        0 15 3 3</rect></_>
    <_>
      <rect>
        0 18 7 2</rect></_>
    <_>
      <rect>
        0 21 1 1</rect></_>
    <_>
      <rect>
        1 3 6 5</rect></_>
    <_>
      <rect>
        1 10 6 4</rect></_>
    <_>
      <rect>
        1 12 6 2</rect></_>
    <_>
      <rect>
        2 9 7 5</rect></_>
    <_>
      <rect>
        3 0 6 2</rect></_>
    <_>
      <rect>
        3 1 5 5</rect></_>
    <_>
      <rect>
        3 9 7 5</rect></_>
    <_>
      <rect>
        3 21 7 1</rect></_>
    <_>
      <rect>
        4 9 5 3</rect></_>
    <_>
      <rect>
        5 4 5 6</rect></_>
    <_>
      <rect>
        5 7 5 5</rect></_>
    <_>
      <rect>
        5 7 6 5</rect></_>
    <_>
      <rect>
        5 12 4 4</rect></_>
    <_>
      <rect>
        5 12 5 4</rect></_>
    <_>
      <rect>
        6 3 5 5</rect></_>
    <_>
      <rect>
        6 4 4 6</rect></_>
    <_>
      <rect>
        6 4 5 4</rect></_>
    <_>
      <rect>
        6 4 6 4</rect></_>
    <_>
      <rect>
        6 7 6 4</rect></_>
    <_>
      <rect>
        6 11 5 3</rect></_>
    <_>
      <rect>
        6 13 4 3</rect></_>
    <_>
      <rect>
        6 13 5 2</rect></_>
    <_>
      <rect>
        6 15 6 3</rect></_>
    <_>
      <rect>
        7 3 5 6</rect></_>
    <_>
      <rect>
        7 5 4 3</rect></_>
    <_>
      <rect>
        7 6 3 4</rect></_>
    <_>
      <rect>
        7 7 4 3</rect></_>
    <_>
      <rect>
        7 9 4 5</rect></_>
    <_>
      <rect>
        7 9 5 5</rect></_>
    <_>
      <rect>
        7 10 3 4</rect></_>
    <_>
      <rect>
        7 11 4 2</rect></_>
    <_>
      <rect>
        7 12 4 2</rect></_>
    <_>
      <rect>
        7 13 5 3</rect></_>
    <_>
      <rect>
        7 14 4 3</rect></_>
    <_>
      <rect>
        7 15 3 1</rect></_>
    <_>
      <rect>
        7 18 3 2</rect></_>
    <_>
      <rect>
        7 18 4 2</rect></_>
    <_>
      <rect>
        7 18 5 2</rect></_>
    <_>
      <rect>
        8 4 4 3</rect></_>
    <_>
      <rect>
        8 16 4 2</rect></_>
    <_>
      <rect>
        8 17 3 2</rect></_>
    <_>
      <rect>
        9 7 3 2</rect></_>
    <_>
      <rect>
        9 9 5 4</rect></_>
    <_>
      <rect>
        9 10 3 2</rect></_>
    <_>
      <rect>
        9 10 3 3</rect></_>
    <_>
      <rect>
        9 11 4 3</rect></_>
    <_>
      <rect>
        10 2 3 4</rect></_>
    <_>
      <rect>
        10 16 2 2</rect></_>
    <_>
      <rect>
        11 14 1 1</rect></_>
    <_>
      <rect>
        12 0 4 4</rect></_>
    <_>
      <rect>
        12 6 4 5</rect></_>
    <_>
      <rect>
        13 17 1 1</rect></_>
    <_>
      <rect>
        18 0 2 2</rect></_>
    <_>
      <rect>
        18 0 2 4</rect></_>
    <_>
      <rect>
        18 0 2 7</rect></_>
    <_>
      <rect>
        18 6 2 5</rect></_>
    <_>
      <rect>
        18 18 2 2</rect></_>
    <_>
      <rect>
        21 4 1 1</rect></_>
    <_>
      <rect>
        21 21 1 1</rect></_></features></cascade>
</opencv_storage>
